{
  "input_sequences": [],
  "inputs": [
    {
      "name": "dNN",
      "variables": [
        {
          "name": "hitX1",
          "offset": 0,
          "scale": 1
        },
        {
          "name": "hitX2",
          "offset": 0,
          "scale": 1
        },
        {
          "name": "hitX3",
          "offset": 0,
          "scale": 1
        },
        {
          "name": "hitX4",
          "offset": 0,
          "scale": 1
        },
        {
          "name": "hitX5",
          "offset": 0,
          "scale": 1
        },
        {
          "name": "hitX6",
          "offset": 0,
          "scale": 1
        },
        {
          "name": "hitX7",
          "offset": 0,
          "scale": 1
        },
        {
          "name": "hitX8",
          "offset": 0,
          "scale": 1
        },
        {
          "name": "hitY1",
          "offset": 0,
          "scale": 1
        },
        {
          "name": "hitY2",
          "offset": 0,
          "scale": 1
        },
        {
          "name": "hitY3",
          "offset": 0,
          "scale": 1
        },
        {
          "name": "hitY4",
          "offset": 0,
          "scale": 1
        },
        {
          "name": "hitY5",
          "offset": 0,
          "scale": 1
        },
        {
          "name": "hitY6",
          "offset": 0,
          "scale": 1
        },
        {
          "name": "hitY7",
          "offset": 0,
          "scale": 1
        },
        {
          "name": "hitY8",
          "offset": 0,
          "scale": 1
        },
        {
          "name": "hitZ1",
          "offset": 0,
          "scale": 1
        },
        {
          "name": "hitZ2",
          "offset": 0,
          "scale": 1
        },
        {
          "name": "hitZ3",
          "offset": 0,
          "scale": 1
        },
        {
          "name": "hitZ4",
          "offset": 0,
          "scale": 1
        },
        {
          "name": "hitZ5",
          "offset": 0,
          "scale": 1
        },
        {
          "name": "hitZ6",
          "offset": 0,
          "scale": 1
        },
        {
          "name": "hitZ7",
          "offset": 0,
          "scale": 1
        },
        {
          "name": "hitZ8",
          "offset": 0,
          "scale": 1
        }
      ]
    }
  ],
  "layers": [
    {
      "activation": "rectified",
      "architecture": "dense",
      "bias": [
        0.09945060312747955,
        0.0,
        -0.006964934058487415,
        -0.006727815140038729,
        -0.02844415046274662,
        -0.03695712238550186,
        0.06308957189321518,
        -0.22493067383766174,
        -0.0618237629532814,
        -0.02073107659816742,
        0.0,
        -0.21004503965377808,
        -0.027776893228292465,
        0.0,
        -0.010904429480433464,
        -0.04349561035633087,
        -0.008133258670568466,
        -0.1369210183620453,
        -0.006317212712019682,
        -0.001002014148980379,
        -0.046311598271131516,
        0.0,
        0.0,
        0.0,
        0.186581552028656,
        0.0,
        -0.005835758056491613,
        -0.10166092216968536,
        0.026785453781485558,
        -0.0021506387274712324,
        0.0,
        0.0,
        -0.0031070332042872906,
        0.09843825548887253,
        0.0,
        -0.07940542697906494,
        0.0,
        -0.01252522598952055,
        -0.07942261546850204,
        -0.01706426590681076,
        0.0,
        -0.06818830966949463,
        0.013521065935492516,
        0.0,
        -0.012337797321379185,
        -0.004921967629343271,
        0.32083892822265625,
        -0.005290951579809189,
        0.0,
        0.020144544541835785,
        0.012275058776140213,
        0.14085827767848969,
        -0.011110031977295876,
        0.019410952925682068,
        -0.06269999593496323,
        0.0,
        -0.05177604779601097,
        -0.003940702881664038,
        -0.000772681669332087,
        0.07104256749153137,
        -0.04229294881224632,
        0.04647514969110489,
        0.0,
        0.0021371780894696712
      ],
      "weights": [
        -0.28006410598754883,
        -0.08909828960895538,
        0.10667501389980316,
        -0.13520394265651703,
        0.04547720402479172,
        0.11629316955804825,
        -0.0732366293668747,
        0.010228723287582397,
        -0.4163692593574524,
        0.04787401482462883,
        0.18136641383171082,
        -0.05054701119661331,
        0.1792697310447693,
        0.17756664752960205,
        -0.08151379972696304,
        0.040382012724876404,
        0.6579410433769226,
        -0.6442067623138428,
        -0.19115819036960602,
        -0.18655648827552795,
        -0.12507477402687073,
        0.027914734557271004,
        0.4988138675689697,
        -0.2819552719593048,
        -0.06212988495826721,
        -0.10886086523532867,
        0.050773561000823975,
        0.20771628618240356,
        -0.0968855619430542,
        0.15794378519058228,
        -0.1508978307247162,
        -0.19730763137340546,
        0.01849210262298584,
        0.22686108946800232,
        -0.24399709701538086,
        0.1152888834476471,
        -0.14642411470413208,
        -0.07436193525791168,
        -0.06901995837688446,
        -0.0011512339115142822,
        -0.1849842518568039,
        -0.16042259335517883,
        0.23042750358581543,
        0.145907461643219,
        0.1870255172252655,
        -0.24971528351306915,
        0.03626784682273865,
        -0.07277935743331909,
        -0.3441789150238037,
        -0.18211472034454346,
        -0.15993864834308624,
        0.021975930780172348,
        -0.13678275048732758,
        -0.05926671251654625,
        0.08456207811832428,
        0.05340616777539253,
        -0.17458729445934296,
        0.28999340534210205,
        -0.07795997709035873,
        -0.19811975955963135,
        -0.05766065791249275,
        0.2729581296443939,
        -0.17930792272090912,
        0.1448437124490738,
        -0.38583528995513916,
        0.023157326504588127,
        0.2268708497285843,
        -0.3501162528991699,
        0.45240625739097595,
        -0.5097194314002991,
        -0.3515152335166931,
        0.430946946144104,
        -0.14662642776966095,
        -0.16055795550346375,
        0.27154600620269775,
        0.13634398579597473,
        0.03663534298539162,
        -0.10988891124725342,
        -0.03214770555496216,
        0.04597344994544983,
        -0.02294103242456913,
        -0.21027682721614838,
        -0.19251570105552673,
        0.23256322741508484,
        -0.07271238416433334,
        0.09583592414855957,
        -0.0735907256603241,
        -0.07391351461410522,
        -0.034483037889003754,
        -0.020788928493857384,
        0.14417290687561035,
        -0.1518213003873825,
        0.08292288333177567,
        0.06978487968444824,
        -0.18256865441799164,
        0.17003637552261353,
        -0.2461429089307785,
        -0.3027624785900116,
        -0.30659350752830505,
        0.11551739275455475,
        0.049924276769161224,
        -0.07587064802646637,
        0.028566516935825348,
        0.03226332738995552,
        0.056980449706315994,
        -0.18578200042247772,
        0.03080439381301403,
        0.01184804830700159,
        0.002711618086323142,
        0.056651659309864044,
        -0.16404861211776733,
        0.19400347769260406,
        -1.1916835308074951,
        0.6019436717033386,
        0.18389098346233368,
        1.0027964115142822,
        -0.09543031454086304,
        -0.036385830491781235,
        -0.5975891351699829,
        0.1605486124753952,
        -0.10157819092273712,
        0.005823993589729071,
        0.08332347124814987,
        -0.23061038553714752,
        0.05132627114653587,
        -0.009326526895165443,
        0.04133262485265732,
        0.012890076264739037,
        -0.014134421944618225,
        0.05790787935256958,
        -0.08554635941982269,
        0.019550180062651634,
        0.10730314254760742,
        0.024788586422801018,
        0.10684610158205032,
        -0.00969753973186016,
        -0.4370388686656952,
        -0.20612123608589172,
        1.0563132762908936,
        -0.5220471620559692,
        0.18169642984867096,
        0.24814246594905853,
        -0.44432875514030457,
        0.18019574880599976,
        -0.023935774341225624,
        -0.20557808876037598,
        -0.1333802342414856,
        -0.2100129872560501,
        -0.24803276360034943,
        0.08862607181072235,
        -0.04692952707409859,
        0.22002531588077545,
        -0.21515782177448273,
        -0.21631400287151337,
        -0.127409428358078,
        0.146066814661026,
        -0.038612741976976395,
        -0.04915090650320053,
        0.27124178409576416,
        0.16376976668834686,
        -0.3103753328323364,
        0.12991248071193695,
        0.2031242549419403,
        -0.12176290899515152,
        -0.18452835083007812,
        0.4786135256290436,
        -0.03526829928159714,
        -0.10225041210651398,
        0.24181944131851196,
        0.2827041447162628,
        0.24602468311786652,
        -0.18684275448322296,
        -0.05172086879611015,
        0.2261771857738495,
        -0.13786335289478302,
        0.049459367990493774,
        0.2505621016025543,
        0.38004520535469055,
        0.5127350091934204,
        0.17065654695034027,
        -0.2658635675907135,
        0.10240665823221207,
        -0.19571417570114136,
        -0.010905577801167965,
        0.07215569913387299,
        0.13109365105628967,
        -0.6144190430641174,
        0.12696045637130737,
        -0.10612798482179642,
        0.3788778483867645,
        -0.05579015612602234,
        -0.02711929753422737,
        -0.40358787775039673,
        0.36460229754447937,
        -0.27368292212486267,
        -0.11283271014690399,
        -0.11319386214017868,
        -0.02627452090382576,
        0.10621922463178635,
        0.08426512777805328,
        0.2691950798034668,
        0.028433553874492645,
        -0.0761406198143959,
        0.22541497647762299,
        -0.23915986716747284,
        -0.07766410708427429,
        0.2791806757450104,
        0.007649673614650965,
        0.23734982311725616,
        -0.8894877433776855,
        0.25426000356674194,
        0.8634832501411438,
        -0.3779350519180298,
        -0.03166349232196808,
        -0.05448298156261444,
        -0.23254799842834473,
        -0.13616450130939484,
        0.23454135656356812,
        -0.2310400903224945,
        -0.17674557864665985,
        0.022629236802458763,
        -0.08668773621320724,
        0.09003979712724686,
        -0.0007380055030807853,
        0.24595214426517487,
        -0.36507517099380493,
        0.1814642995595932,
        -0.15181474387645721,
        0.19013501703739166,
        0.20459401607513428,
        -0.22293449938297272,
        0.027324466034770012,
        1.1423126459121704,
        -0.3419855535030365,
        -0.4826563000679016,
        -0.2201765924692154,
        0.327735960483551,
        -0.1902468502521515,
        -0.35540544986724854,
        0.3184773623943329,
        0.0929558277130127,
        -0.009524405002593994,
        -0.05623564124107361,
        -0.16204850375652313,
        -0.20401610434055328,
        -0.027662336826324463,
        -0.1565750539302826,
        -0.14442884922027588,
        -0.24308493733406067,
        -0.26099836826324463,
        -0.06576825678348541,
        -0.06976154446601868,
        0.2546059787273407,
        -0.18935038149356842,
        -0.14637120068073273,
        -0.1904115229845047,
        -0.03369273245334625,
        0.05413311719894409,
        0.12565359473228455,
        -0.0455239862203598,
        0.12750619649887085,
        0.04157540202140808,
        -0.10867933928966522,
        -0.2221064269542694,
        0.20272447168827057,
        0.30290815234184265,
        0.31526216864585876,
        0.00626028049737215,
        0.15691274404525757,
        -0.08144676685333252,
        -0.025821374729275703,
        -0.10002873837947845,
        0.30213797092437744,
        0.07546206563711166,
        0.16171301901340485,
        -0.22647690773010254,
        0.01597783900797367,
        0.1327156275510788,
        0.21241147816181183,
        0.05161874741315842,
        0.1658843755722046,
        -0.06269075721502304,
        -0.40301093459129333,
        0.49604323506355286,
        -0.10622547566890717,
        0.4045887291431427,
        -0.05953517556190491,
        -0.3660427927970886,
        0.5475766658782959,
        -0.05316859483718872,
        0.14761272072792053,
        -0.24257387220859528,
        0.11565447598695755,
        0.07331978529691696,
        -0.03943561390042305,
        0.007319760508835316,
        -0.1399361491203308,
        0.014727946370840073,
        -0.56098473072052,
        0.040079981088638306,
        0.1218687891960144,
        -0.10851757228374481,
        0.46840035915374756,
        0.0024946986231952906,
        0.46415963768959045,
        -0.019074104726314545,
        -0.6576361060142517,
        0.16788014769554138,
        -0.2160678505897522,
        0.2653473913669586,
        0.1767621785402298,
        -0.14379331469535828,
        0.16888266801834106,
        0.16064783930778503,
        0.2571147382259369,
        0.00910884141921997,
        -0.01895192265510559,
        -0.11945866048336029,
        0.05851486325263977,
        0.2605530917644501,
        0.05514374375343323,
        0.12623077630996704,
        -0.1094491183757782,
        0.04477623105049133,
        0.09028452634811401,
        -0.1588754951953888,
        -0.15580520033836365,
        -0.17037393152713776,
        0.15273377299308777,
        -0.01892814040184021,
        -0.1897057294845581,
        -0.22466745972633362,
        -0.21018022298812866,
        0.09550225734710693,
        -0.073431596159935,
        -0.035694852471351624,
        0.06966555863618851,
        0.25881123542785645,
        0.0995764285326004,
        0.026211516931653023,
        -0.02836727723479271,
        -0.0818079337477684,
        0.10962356626987457,
        -0.1515968292951584,
        0.03815540671348572,
        -0.012699653394520283,
        -0.5341166853904724,
        0.21812935173511505,
        -0.472197026014328,
        0.12839727103710175,
        0.49988552927970886,
        0.052993886172771454,
        -0.30801621079444885,
        0.3250390291213989,
        0.2566930055618286,
        -0.8218729496002197,
        -0.026968659833073616,
        0.17106449604034424,
        0.3833385109901428,
        -0.09147937595844269,
        -0.33937111496925354,
        -0.14786377549171448,
        0.13991355895996094,
        -0.04430680349469185,
        0.15888598561286926,
        -0.06112203747034073,
        0.01811838150024414,
        -0.3711288869380951,
        0.16692383587360382,
        0.03138113021850586,
        0.1804666966199875,
        0.15099287033081055,
        0.08472643047571182,
        0.0059906053356826305,
        -0.1731148362159729,
        -0.43085262179374695,
        -0.1757715791463852,
        0.4122655689716339,
        0.3166968524456024,
        0.2737577259540558,
        -0.2061958611011505,
        0.35992079973220825,
        -0.3963877260684967,
        -0.2876935303211212,
        0.12288912385702133,
        -0.058993447571992874,
        0.16573961079120636,
        -0.2652202546596527,
        -0.20949633419513702,
        0.014382160268723965,
        -0.1628904491662979,
        -0.1809765249490738,
        -0.20422513782978058,
        -0.13340885937213898,
        0.17840836942195892,
        0.09805875271558762,
        -0.047732725739479065,
        -0.024782251566648483,
        -0.25646209716796875,
        0.08528317511081696,
        -0.03526292368769646,
        0.09679578244686127,
        -0.05941567197442055,
        -0.10413932800292969,
        0.1895979344844818,
        -0.24234065413475037,
        0.09822360426187515,
        0.1730092167854309,
        0.43039220571517944,
        0.022328360006213188,
        0.049413006752729416,
        0.08295683562755585,
        0.2168586403131485,
        0.11345307528972626,
        -0.1734199970960617,
        -0.08240704238414764,
        -0.33206841349601746,
        -0.04657794162631035,
        0.21839874982833862,
        -0.022251706570386887,
        0.22044885158538818,
        -0.08313993364572525,
        0.24289177358150482,
        -0.0002116296673193574,
        -0.9729543924331665,
        0.6135048866271973,
        0.17209605872631073,
        0.4728541076183319,
        0.00048596604028716683,
        0.1005735844373703,
        -0.3996540904045105,
        -0.11325637251138687,
        0.2116214632987976,
        -0.06591103225946426,
        0.21218259632587433,
        -0.049748651683330536,
        -0.16764074563980103,
        -0.10004697740077972,
        0.06159581243991852,
        -0.2310507893562317,
        -0.2199295312166214,
        -0.041223328560590744,
        -0.13772545754909515,
        -0.0012764715356752276,
        0.03791986033320427,
        -0.09303987771272659,
        -0.11649024486541748,
        0.08976228535175323,
        -0.07261895388364792,
        0.036055486649274826,
        0.1363074779510498,
        0.21072721481323242,
        0.13268770277500153,
        -0.20975100994110107,
        0.04909708723425865,
        0.247508242726326,
        0.019967637956142426,
        -0.04994041472673416,
        -0.03057435154914856,
        0.19558222591876984,
        0.0221650879830122,
        -0.020484963431954384,
        0.0008960721315816045,
        0.04133802652359009,
        -0.09828431159257889,
        0.14473500847816467,
        -0.046947628259658813,
        0.07810225337743759,
        -0.16007046401500702,
        0.21898694336414337,
        -0.23082177340984344,
        -0.16218428313732147,
        -0.22712202370166779,
        0.013513851910829544,
        -0.04173148795962334,
        0.14746429026126862,
        0.13398690521717072,
        0.19760510325431824,
        -0.16393756866455078,
        -0.25226300954818726,
        0.062131118029356,
        0.3421216607093811,
        0.12666107714176178,
        -0.26095837354660034,
        -0.1231963112950325,
        0.04423368722200394,
        0.11334644258022308,
        -0.00799731444567442,
        -0.09952230751514435,
        0.4179607629776001,
        0.19641493260860443,
        -0.2626802623271942,
        -0.2411470264196396,
        0.006445086095482111,
        0.19646568596363068,
        -0.02256334200501442,
        0.24787458777427673,
        0.12285345792770386,
        -0.44184184074401855,
        -0.19391372799873352,
        0.649798572063446,
        -0.21128618717193604,
        -0.07931358367204666,
        0.19891232252120972,
        0.24096813797950745,
        -0.25116807222366333,
        0.015803933143615723,
        -0.1048835813999176,
        0.24540916085243225,
        0.06625744700431824,
        0.04531678557395935,
        -0.21082419157028198,
        -0.06233501434326172,
        -0.0016652047634124756,
        -0.21663470566272736,
        -0.23267152905464172,
        0.2010802924633026,
        -0.12283705174922943,
        -0.09692813456058502,
        -0.1957198828458786,
        -0.00479358434677124,
        0.08352860808372498,
        0.22251993417739868,
        -0.010442167520523071,
        -0.08768893778324127,
        -0.11798714101314545,
        0.1860417127609253,
        0.07208782434463501,
        0.18302252888679504,
        -0.1263582706451416,
        -0.255475789308548,
        -0.15862946212291718,
        0.2314022183418274,
        -0.13751915097236633,
        -0.033799052238464355,
        0.06265094876289368,
        -0.15581534802913666,
        -0.23373627662658691,
        -0.15043458342552185,
        0.14549016952514648,
        -0.13136063516139984,
        -0.09037959575653076,
        0.00899118185043335,
        -0.08409956097602844,
        0.1087389886379242,
        -0.11798153817653656,
        -0.12036684155464172,
        -0.2560327351093292,
        0.21108442544937134,
        -0.10046559572219849,
        -0.005510509014129639,
        -0.09490074217319489,
        -0.10904040932655334,
        -0.22330476343631744,
        0.04019930958747864,
        0.23477929830551147,
        0.08211585879325867,
        -0.010826081037521362,
        0.14252781867980957,
        -0.026109695434570312,
        -0.22778408229351044,
        -0.10050038993358612,
        -0.0810173749923706,
        -0.20417971909046173,
        0.05702510476112366,
        0.07134488224983215,
        -0.25677624344825745,
        -0.1855488419532776,
        0.21070972084999084,
        -0.024706706404685974,
        0.20797881484031677,
        -0.04598212242126465,
        0.08918642997741699,
        0.1450614631175995,
        0.20059216022491455,
        -0.022184520959854126,
        0.2525641620159149,
        -0.12945199012756348,
        0.20457451045513153,
        0.08920267224311829,
        -0.22840562462806702,
        -0.03888694569468498,
        0.061476968228816986,
        0.026926768943667412,
        0.029542259871959686,
        0.028989410027861595,
        0.025218738242983818,
        0.0706462413072586,
        -0.029541760683059692,
        0.10444007813930511,
        0.18248336017131805,
        0.01599641516804695,
        0.7109165191650391,
        -0.1644834578037262,
        -0.912432849407196,
        0.4716126322746277,
        -0.1265951693058014,
        0.09701983630657196,
        -0.23206005990505219,
        0.47771182656288147,
        -0.06608594954013824,
        -0.05448527634143829,
        -0.1712067723274231,
        0.11421412229537964,
        0.04148399829864502,
        0.11384376883506775,
        -0.2037731260061264,
        -0.051814109086990356,
        -0.11515249311923981,
        -0.1612113118171692,
        0.21683865785598755,
        0.13053980469703674,
        -0.11635294556617737,
        -0.10020212829113007,
        -0.06451979279518127,
        -0.08287350833415985,
        -0.10325798392295837,
        -0.07388158142566681,
        0.06523013114929199,
        -0.1350259631872177,
        -0.24476195871829987,
        0.13612022995948792,
        -0.06763634085655212,
        -0.110624298453331,
        0.25003495812416077,
        0.24480904638767242,
        -0.01599280536174774,
        -0.12480228394269943,
        -0.04286676645278931,
        -0.1351756900548935,
        0.2146719992160797,
        -0.09032674133777618,
        -0.2436770796775818,
        0.2022043764591217,
        -0.18771319091320038,
        0.15614798665046692,
        0.0014971655327826738,
        0.007548246067017317,
        -0.0965304747223854,
        -0.18882040679454803,
        -0.16019895672798157,
        0.14070765674114227,
        -0.22746187448501587,
        0.014171410351991653,
        -0.07982999086380005,
        -0.13476312160491943,
        0.06924643367528915,
        0.16600286960601807,
        -0.6607506275177002,
        -0.009939340874552727,
        -0.1315702348947525,
        0.11193859577178955,
        -0.05470434948801994,
        -0.01934158056974411,
        -0.003692285856232047,
        0.08287451416254044,
        0.08317694067955017,
        0.01687939278781414,
        -0.08604519814252853,
        0.15888990461826324,
        0.32519668340682983,
        -0.047527506947517395,
        -0.09360989183187485,
        0.027783790603280067,
        -0.36881962418556213,
        0.20505449175834656,
        0.4256459176540375,
        0.035376884043216705,
        0.19580061733722687,
        -0.8117260932922363,
        0.3589896261692047,
        -0.07095630466938019,
        -0.006458415184170008,
        -0.026594169437885284,
        -0.06566018611192703,
        -0.21349935233592987,
        -0.2790370583534241,
        0.1054580882191658,
        0.21078376471996307,
        0.07126632332801819,
        -0.1363837569952011,
        0.46140918135643005,
        0.06278091669082642,
        -0.0470774807035923,
        -0.19296881556510925,
        -0.15847153961658478,
        0.20872795581817627,
        -0.30223605036735535,
        -0.09405916184186935,
        -0.07911021262407303,
        -0.1450449377298355,
        -0.32020920515060425,
        -0.35556820034980774,
        0.05777491256594658,
        0.604282021522522,
        0.01804092712700367,
        0.5476910471916199,
        0.02706065960228443,
        0.1624242514371872,
        0.03805479407310486,
        0.10624117404222488,
        -0.021803000941872597,
        -0.07226085662841797,
        -0.0006873635575175285,
        0.10093937814235687,
        -0.16148501634597778,
        0.12038235366344452,
        0.011852633208036423,
        -0.29368099570274353,
        0.13626594841480255,
        0.1580916941165924,
        -0.011244220659136772,
        -0.18781091272830963,
        0.8800002336502075,
        -0.009651660919189453,
        -0.22455313801765442,
        0.03822747990489006,
        -0.802376389503479,
        0.14047597348690033,
        0.2408629059791565,
        -0.023269742727279663,
        0.025486648082733154,
        -0.19636639952659607,
        -0.006425201892852783,
        -0.14058458805084229,
        -0.183925598859787,
        0.21173864603042603,
        -0.20915494859218597,
        0.20465341210365295,
        0.13756054639816284,
        0.08373275399208069,
        -0.20731045305728912,
        -0.1364733874797821,
        -0.18209916353225708,
        -0.14227749407291412,
        0.18486541509628296,
        -0.20623581111431122,
        0.08378157019615173,
        -0.14677846431732178,
        -0.10819561779499054,
        -0.027134105563163757,
        -0.08776949346065521,
        0.21742838621139526,
        -0.0945054292678833,
        0.027360886335372925,
        -0.12817324697971344,
        0.012806534767150879,
        0.09292912483215332,
        -0.20953302085399628,
        0.06273543834686279,
        -0.04735085368156433,
        0.12177535891532898,
        -0.023890182375907898,
        -0.2479468584060669,
        -0.16802635788917542,
        -0.09485897421836853,
        -0.14024075865745544,
        -0.05967548489570618,
        0.24593380093574524,
        -0.13189677894115448,
        0.2394239604473114,
        -0.06092257797718048,
        -0.2135244458913803,
        0.14840558171272278,
        -0.24417981505393982,
        0.007297039031982422,
        0.0935143232345581,
        0.1755615770816803,
        0.16275715827941895,
        -0.1983824372291565,
        -0.08207999169826508,
        -0.2318839579820633,
        -0.04805149883031845,
        -0.1340627372264862,
        0.06918460875749588,
        0.10967355966567993,
        0.22822165489196777,
        -0.10607320070266724,
        0.009867679327726364,
        -0.2374347448348999,
        0.21982340514659882,
        -0.07745852321386337,
        -0.08389701694250107,
        -0.23456253111362457,
        0.10222182422876358,
        0.24645903706550598,
        0.23991899192333221,
        -0.12544192373752594,
        0.013367444276809692,
        -0.2635229527950287,
        0.22853662073612213,
        -0.08746026456356049,
        0.6040945053100586,
        0.3361071050167084,
        0.14503012597560883,
        -0.041319768875837326,
        -0.06618513911962509,
        -0.05443236604332924,
        -0.12489275634288788,
        0.20863966643810272,
        0.0872572809457779,
        0.27584147453308105,
        -0.2065967172384262,
        -0.19379176199436188,
        0.5062034726142883,
        0.10988208651542664,
        0.0784202292561531,
        -0.03912397474050522,
        -0.9391340613365173,
        0.17275984585285187,
        -0.031010117381811142,
        0.6734288930892944,
        -0.040177907794713974,
        -0.2371065616607666,
        -0.035417426377534866,
        -0.11549034714698792,
        -0.00997936725616455,
        0.022035419940948486,
        -0.17435452342033386,
        0.06732642650604248,
        0.07642912864685059,
        0.23487287759780884,
        -0.23103733360767365,
        0.08581399917602539,
        0.06251195073127747,
        0.02886316180229187,
        -0.13311822712421417,
        -0.23708578944206238,
        -0.17390510439872742,
        0.038730889558792114,
        0.09668856859207153,
        -0.2076185643672943,
        0.04413750767707825,
        0.019245773553848267,
        0.2564534842967987,
        -0.1325291097164154,
        0.14192575216293335,
        0.03665325045585632,
        0.14768719673156738,
        -0.23530903458595276,
        -0.5861876606941223,
        0.04745876044034958,
        -0.31669577956199646,
        0.28278425335884094,
        -0.2955455780029297,
        -0.025753259658813477,
        -0.03693527355790138,
        0.1348300278186798,
        0.15107926726341248,
        0.2284628301858902,
        -0.09927097707986832,
        0.4423292875289917,
        -0.06229475140571594,
        -0.036241624504327774,
        -0.2663952112197876,
        0.10344274342060089,
        0.17876510322093964,
        -0.2916449010372162,
        0.14686955511569977,
        -0.3704475462436676,
        0.22806932032108307,
        0.1325921267271042,
        0.15243399143218994,
        -0.07451826333999634,
        -0.20188331604003906,
        0.1381531059741974,
        0.18764957785606384,
        0.15466013550758362,
        -0.15723563730716705,
        0.03476729989051819,
        -0.009311407804489136,
        0.11695519089698792,
        -0.15785792469978333,
        -0.15947824716567993,
        0.12342432141304016,
        0.029814809560775757,
        -0.20380736887454987,
        -0.05719199776649475,
        -0.03600980341434479,
        -0.010206073522567749,
        -0.19992265105247498,
        -0.09983009099960327,
        0.1777772307395935,
        -0.2560479938983917,
        -0.01015329360961914,
        -0.13103429973125458,
        0.17572462558746338,
        0.22562426328659058,
        0.03880536928772926,
        0.20267054438591003,
        -0.2515835464000702,
        0.17104168236255646,
        0.06415317952632904,
        0.25039923191070557,
        -0.052997566759586334,
        -0.2073209136724472,
        0.05486214905977249,
        0.18512648344039917,
        0.11575348675251007,
        0.036287572234869,
        -0.18951435387134552,
        -0.23581640422344208,
        -0.06103129684925079,
        0.053846150636672974,
        0.13397297263145447,
        -0.25714993476867676,
        0.038978930562734604,
        -0.0486675500869751,
        -0.27336353063583374,
        0.10126951336860657,
        0.10549603402614594,
        0.13385531306266785,
        0.0662434846162796,
        -0.27634480595588684,
        0.04520578309893608,
        -0.20723623037338257,
        0.22220760583877563,
        0.13796691596508026,
        -0.15053796768188477,
        0.082020603120327,
        0.2920108437538147,
        0.12194346636533737,
        -0.037876371294260025,
        0.11386123299598694,
        -0.038014933466911316,
        -0.07287920266389847,
        -0.009152407757937908,
        -0.35005268454551697,
        0.9496968984603882,
        0.635312020778656,
        0.3751416504383087,
        0.02388768643140793,
        0.1993846297264099,
        -0.21093709766864777,
        0.2368767112493515,
        -0.15569400787353516,
        -0.4372609853744507,
        0.1663033664226532,
        -0.13779444992542267,
        0.34255149960517883,
        -0.23576951026916504,
        -0.0045274957083165646,
        0.04069111496210098,
        -0.4092564582824707,
        -0.07686222344636917,
        0.07332896441221237,
        0.2635694146156311,
        0.115165114402771,
        0.22190441191196442,
        0.029433781281113625,
        -0.22331157326698303,
        -0.25408700108528137,
        -0.2708507180213928,
        -0.037791695445775986,
        -0.2658884525299072,
        -0.11186523735523224,
        -0.26983383297920227,
        -0.04167676717042923,
        -0.352851927280426,
        -0.18651004135608673,
        -0.1003856509923935,
        -0.16226434707641602,
        -0.09213051199913025,
        -0.25478607416152954,
        0.1611517369747162,
        -0.22721020877361298,
        -0.1602286696434021,
        0.2153901755809784,
        -0.08436737954616547,
        -0.15667277574539185,
        -0.14154238998889923,
        -0.18117836117744446,
        0.07241946458816528,
        -0.08380173146724701,
        0.17456629872322083,
        -0.05555395781993866,
        -0.033790409564971924,
        -0.1523405909538269,
        -0.0929664820432663,
        -0.12189644575119019,
        0.004821270704269409,
        0.09006351232528687,
        -0.1194562315940857,
        0.2251969575881958,
        -0.08836977183818817,
        -0.3425907790660858,
        -0.1505231112241745,
        -0.05562525987625122,
        -0.17521604895591736,
        0.03505372256040573,
        0.1092696487903595,
        0.05599679425358772,
        0.506065845489502,
        0.0718415230512619,
        0.027893779799342155,
        -0.13120657205581665,
        0.15514838695526123,
        -0.03269882872700691,
        0.18667340278625488,
        0.011820273473858833,
        -0.2886366546154022,
        0.3279997408390045,
        0.4054809510707855,
        -0.5459687113761902,
        -0.2238878607749939,
        -0.030478009954094887,
        0.4385398328304291,
        -0.3279474377632141,
        -0.6981694102287292,
        -0.2619771659374237,
        0.12371733784675598,
        -0.007918736897408962,
        -0.17503657937049866,
        -0.2092379927635193,
        0.2583175301551819,
        0.04661345109343529,
        -0.16051694750785828,
        -0.20653511583805084,
        -0.02129005454480648,
        0.23947250843048096,
        0.05073278397321701,
        -0.14823922514915466,
        0.0003249399596825242,
        0.1863667219877243,
        -0.4701545238494873,
        -0.2468291074037552,
        -0.6879758238792419,
        -0.2296191304922104,
        -0.5659121870994568,
        0.2206527441740036,
        0.1782957762479782,
        -0.19897007942199707,
        -0.2142818421125412,
        -0.17756563425064087,
        -0.025899827480316162,
        0.08834642171859741,
        -0.2571652829647064,
        -0.21014903485774994,
        0.1277754306793213,
        -0.18423396348953247,
        0.10042306780815125,
        -0.13182376325130463,
        -0.20409031212329865,
        -0.22042341530323029,
        0.06944280862808228,
        -0.028147488832473755,
        -0.1498311460018158,
        -0.019833892583847046,
        -0.16661261022090912,
        0.10036343336105347,
        -0.23197035491466522,
        -0.21599894762039185,
        -0.25648054480552673,
        0.09150347113609314,
        -0.15614542365074158,
        -0.030848726630210876,
        -0.3692570626735687,
        0.12036628276109695,
        -0.22571919858455658,
        -0.051461633294820786,
        -0.07502511143684387,
        -0.10281955450773239,
        0.05858945474028587,
        0.06957058608531952,
        0.10800629109144211,
        -0.16329717636108398,
        0.17364077270030975,
        -0.18898986279964447,
        0.15578530728816986,
        -0.2639112174510956,
        0.06149289011955261,
        0.13333193957805634,
        0.5118428468704224,
        -0.19853197038173676,
        -0.46281197667121887,
        -0.4681773781776428,
        -0.08163876086473465,
        -0.27144309878349304,
        -0.3797928988933563,
        0.8932233452796936,
        0.4180256128311157,
        -0.2282085120677948,
        0.12087263911962509,
        0.1228136420249939,
        -0.10427460074424744,
        -0.274899423122406,
        0.2945217788219452,
        -0.07205423712730408,
        -0.11762474477291107,
        0.2807827591896057,
        0.4264175295829773,
        -0.05549885705113411,
        -0.019362499937415123,
        -0.05763896927237511,
        0.04316520318388939,
        0.02841922827064991,
        0.8890160918235779,
        0.06787144392728806,
        0.19900505244731903,
        -0.41366511583328247,
        -0.24442827701568604,
        -0.07793409377336502,
        -0.19552643597126007,
        0.15895096957683563,
        0.3707811236381531,
        0.17363794147968292,
        -0.03990975022315979,
        0.07702771574258804,
        -0.23309704661369324,
        0.001795564079657197,
        0.20870061218738556,
        0.006562486290931702,
        0.07666312903165817,
        0.5218675136566162,
        -0.888671875,
        0.2977842688560486,
        0.14386573433876038,
        -0.13331268727779388,
        -0.1407586634159088,
        0.13169045746326447,
        -0.0657317191362381,
        -0.2898765504360199,
        0.09429929405450821,
        0.18337363004684448,
        0.09679684787988663,
        -0.12954860925674438,
        0.42734068632125854,
        -0.07274428009986877,
        0.05162465199828148,
        -0.026886215433478355,
        0.18542736768722534,
        -0.20834290981292725,
        -0.1891486793756485,
        -0.10051999986171722,
        0.10976768285036087,
        -0.03000526688992977,
        -0.12195413559675217,
        -0.2456323802471161,
        0.09069022536277771,
        -0.0803268700838089,
        -0.16842021048069,
        0.13814596831798553,
        -0.0024184337817132473,
        0.034829605370759964,
        -0.1783653199672699,
        0.08022351562976837,
        0.11075794696807861,
        -0.19892875850200653,
        0.07615656405687332,
        -0.09915652871131897,
        0.11823101341724396,
        0.1437901258468628,
        -0.20959004759788513,
        0.02191215753555298,
        0.24744388461112976,
        -0.0986613780260086,
        -0.20341186225414276,
        0.20873746275901794,
        0.06963902711868286,
        0.0812702476978302,
        -0.20997397601604462,
        -0.2277703881263733,
        0.04104885458946228,
        0.20874381065368652,
        -0.24482396245002747,
        -0.2370651811361313,
        0.0013470053672790527,
        0.05429428815841675,
        0.027608364820480347,
        0.10509401559829712,
        -0.18844014406204224,
        -0.0805462896823883,
        0.06331765651702881,
        -0.24834199249744415,
        -0.15124446153640747,
        0.2509767711162567,
        0.2419821321964264,
        -0.04817444458603859,
        0.018541187047958374,
        -0.12667371332645416,
        -0.05490567907691002,
        -0.0458403080701828,
        0.1374860405921936,
        -0.20714187622070312,
        0.2823169529438019,
        -0.3974843919277191,
        0.1265745311975479,
        -0.2975446283817291,
        0.15280359983444214,
        0.05549422651529312,
        0.04608389362692833,
        -0.17500253021717072,
        -0.1460879147052765,
        0.27254635095596313,
        0.3672754764556885,
        0.24273596704006195,
        -0.23938073217868805,
        -0.19947925209999084,
        0.624167263507843,
        -0.331277996301651,
        -0.10876989364624023,
        0.09686937928199768,
        -0.2923141121864319,
        -0.13806074857711792,
        -0.08642265945672989,
        -0.04561483487486839,
        0.16360680758953094,
        -0.0007661872659809887,
        0.027869142591953278,
        0.09294331073760986,
        0.07875388860702515,
        0.006755730602890253,
        0.014269623905420303,
        0.019194675609469414,
        -0.1095127984881401,
        0.009183818474411964,
        -0.8645082116127014,
        1.0050846338272095,
        -0.3160090446472168,
        0.057179346680641174,
        -0.22302372753620148,
        0.08389934152364731,
        0.10031130909919739,
        -0.02806559018790722,
        -0.02402069978415966,
        0.13756012916564941,
        0.22264951467514038,
        -0.30032190680503845,
        0.06957495957612991,
        -0.13751381635665894,
        0.0850670337677002,
        -0.020788542926311493,
        0.016420133411884308,
        -0.048353709280490875,
        0.12070035189390182,
        -0.006054298020899296,
        -0.054006177932024,
        -0.02586982771754265,
        0.18008561432361603,
        0.01758209802210331,
        0.2239828258752823,
        -0.24324655532836914,
        -0.2227315902709961,
        -0.1673140525817871,
        0.722906231880188,
        -0.30661740899086,
        0.25617289543151855,
        -0.3767567574977875,
        -0.3408340513706207,
        0.17209677398204803,
        -0.05213155597448349,
        -0.1180412620306015,
        0.02865486964583397,
        -0.018543485552072525,
        0.18693135678768158,
        -0.17372797429561615,
        0.0684034675359726,
        0.21103523671627045,
        0.15106429159641266,
        -0.021533522754907608,
        -0.06810534745454788,
        -0.18111944198608398,
        -0.11900898069143295,
        0.1807689219713211,
        0.8412428498268127,
        0.6296522617340088,
        0.023004215210676193,
        -0.3387649357318878,
        0.4062368869781494,
        -0.9687088131904602,
        -0.6293278932571411,
        -0.03528639301657677,
        -0.9743596315383911,
        0.09444501250982285,
        0.0956495851278305,
        -0.10546495765447617,
        -0.11770900338888168,
        -0.10620369762182236,
        0.30290406942367554,
        0.4561193287372589,
        0.033906277269124985,
        -0.053206898272037506,
        -0.05212212726473808,
        0.255413681268692,
        -0.28744253516197205,
        0.006352370139211416,
        0.11652360111474991,
        -0.13346803188323975,
        -0.1589331030845642,
        -0.6212462782859802,
        0.3083013892173767,
        0.1271609663963318,
        -0.014867166057229042,
        0.24153080582618713,
        -0.3565218448638916,
        0.1494988203048706,
        -0.10257508605718613,
        -0.06622442603111267,
        0.1475607454776764,
        0.0928114801645279,
        0.10409244894981384,
        0.08260885626077652,
        -0.18467749655246735,
        0.031651392579078674,
        -0.06241302937269211,
        -0.06288083642721176,
        -0.0739511251449585,
        0.08987414836883545,
        0.014446884393692017,
        -0.03894222527742386,
        0.12134596705436707,
        0.020701780915260315,
        -0.233428955078125,
        0.9585431814193726,
        0.2301136553287506,
        -0.9515933394432068,
        0.411864310503006,
        0.05978202447295189,
        -0.0886414498090744,
        -0.3075816035270691,
        -0.10137930512428284,
        -0.014202862977981567,
        0.14792171120643616,
        0.029022306203842163,
        -0.2541946470737457,
        0.0872136652469635,
        -0.062001392245292664,
        0.18690791726112366,
        -0.16407757997512817,
        0.1772705316543579,
        -0.2430199384689331,
        -0.22160962224006653,
        -0.006096184253692627,
        -0.13886773586273193,
        -0.10397353768348694,
        -0.25421300530433655,
        0.03488105535507202,
        -0.1900542974472046,
        0.08263406157493591,
        -0.21558751165866852,
        -0.06857913732528687,
        -0.11352419853210449,
        -0.05731514096260071,
        0.13337495923042297,
        -0.014903358183801174,
        -0.12264731526374817,
        -0.08693006634712219,
        -0.13576439023017883,
        0.07205830514431,
        0.08735226094722748,
        -0.005299972835928202,
        -0.031110253185033798,
        -0.12121569365262985,
        -0.01598919741809368,
        -0.17565596103668213,
        0.22716447710990906,
        0.2896290421485901,
        -0.06561992317438126,
        -0.051006019115448,
        -0.017212141305208206,
        0.03551234304904938,
        -0.17778152227401733,
        -0.7364121675491333,
        0.17637574672698975,
        0.774552583694458,
        -0.22984567284584045,
        -0.04759193956851959,
        0.06363016366958618,
        -0.25132375955581665,
        0.1320977509021759,
        -0.12282217293977737,
        0.0999966487288475,
        0.13809515535831451,
        -0.07314267754554749,
        0.02305111475288868,
        -0.007852805778384209,
        0.29859453439712524,
        -0.43652787804603577,
        0.2979010343551636,
        0.0231566671282053,
        0.062117259949445724,
        -0.20243829488754272,
        0.05095018818974495,
        -0.006335714366286993,
        -0.6639042496681213,
        0.32810941338539124,
        -0.461774617433548,
        0.15492463111877441,
        0.26129186153411865,
        0.2652605175971985,
        0.46577581763267517,
        -0.2633882462978363,
        -1.205969214439392,
        -0.4112938642501831,
        -0.14298677444458008,
        -0.11016777902841568,
        -0.16632364690303802,
        0.2003454715013504,
        0.009235620498657227,
        0.061565812677145004,
        -0.12307969480752945,
        0.08867614716291428,
        0.17422930896282196,
        -0.17548459768295288,
        0.01153902243822813,
        -0.04451630264520645,
        -0.08508015424013138,
        0.11449253559112549,
        0.6698301434516907,
        -1.082497000694275,
        -0.34367281198501587,
        0.5664214491844177,
        0.6636491417884827,
        -0.22724109888076782,
        0.36342674493789673,
        -0.4731738865375519,
        -0.12657344341278076,
        -0.15808363258838654,
        0.128736212849617,
        0.026584303006529808,
        -0.03405366465449333,
        -0.012301851995289326,
        0.011223633773624897,
        -0.02418130822479725,
        0.07374607026576996,
        0.02403487078845501,
        -0.20539365708827972,
        -0.04238082468509674,
        -0.09063969552516937,
        0.05494171753525734,
        0.07349220663309097,
        0.01070437766611576,
        -0.7002190351486206,
        -0.08525435626506805,
        0.3281204402446747,
        0.7693770527839661,
        0.4436410963535309,
        -0.3477395176887512,
        -0.32510820031166077,
        -0.07652740180492401,
        -0.2444387972354889,
        -0.23687885701656342,
        0.01604299061000347,
        -0.2386440485715866,
        -0.0590236559510231,
        0.04805435612797737,
        0.06645768135786057,
        -0.0008068364695645869,
        -0.09907806664705276,
        0.03213381767272949,
        -0.1967799812555313,
        0.03410681337118149,
        0.0791262537240982,
        0.0799306184053421,
        0.049080897122621536,
        0.011074503883719444,
        -0.2164614349603653,
        0.8508819937705994,
        -0.4423222839832306,
        0.403278112411499,
        -0.6514019966125488,
        0.1602863073348999,
        0.06888323277235031,
        0.09559953212738037,
        -0.2613680064678192,
        0.005329996347427368,
        -0.15710660815238953,
        0.17583821713924408,
        -0.17343129217624664,
        -0.11833680421113968,
        0.13320019841194153,
        0.0057929521426558495,
        0.18039163947105408,
        -0.016256097704172134,
        0.17126376926898956,
        0.07674701511859894,
        -0.07740955799818039,
        0.03513186052441597,
        -0.1537899374961853,
        -0.002410080749541521,
        0.28324663639068604,
        0.0701129212975502,
        -1.0868873596191406,
        -0.4107377231121063,
        0.5113580226898193,
        0.8092379570007324,
        -0.50014328956604,
        0.20494899153709412,
        -0.12161336839199066,
        0.12228772044181824,
        -0.11422756314277649,
        -0.23137763142585754,
        -0.03015919029712677,
        0.18122845888137817,
        -0.09820935130119324,
        -0.12627995014190674,
        -0.06125806272029877,
        -0.03686828911304474,
        -0.029562920331954956,
        -0.19808189570903778,
        0.0759279727935791,
        0.005393266677856445,
        -0.20207275450229645,
        -0.25897565484046936,
        -0.25219565629959106,
        -0.14843830466270447,
        -0.19801005721092224,
        0.12014353275299072,
        -0.19296610355377197,
        0.0322490930557251,
        0.20668748021125793,
        -0.11537829041481018,
        0.16977567970752716,
        -0.37998536229133606,
        -0.3516947031021118,
        0.01647769659757614,
        -0.24321644008159637,
        0.049837496131658554,
        -0.3800693452358246,
        0.43201279640197754,
        -0.14610634744167328,
        -0.16084524989128113,
        0.05033109709620476,
        -0.18726025521755219,
        -0.2855931222438812,
        0.16944235563278198,
        0.27373814582824707,
        -0.15485608577728271,
        0.2791212499141693,
        0.2225816398859024,
        0.3810635805130005,
        0.11772973090410233,
        -0.26441821455955505,
        0.08686879277229309,
        0.12928639352321625,
        -0.14561590552330017
      ]
    },
    {
      "architecture": "normalization",
      "bias": [
        -0.29210296273231506,
        -0.0005606407066807151,
        -0.012838613241910934,
        0.0039546797052025795,
        -0.007356824353337288,
        -0.14854158461093903,
        -0.19118207693099976,
        -0.07213680446147919,
        -0.1568070650100708,
        -0.02073446288704872,
        0.0012723702238872647,
        -0.2213408499956131,
        -0.1152692437171936,
        -0.00015742279356345534,
        -0.10941015928983688,
        -0.07703325897455215,
        -2.3913309632916935e-05,
        -0.18000347912311554,
        4.1064042306970805e-05,
        3.711162935360335e-05,
        -0.06326396763324738,
        0.005243712570518255,
        -0.0007894609589129686,
        -0.0007196574588306248,
        -0.5142263174057007,
        -0.003681508358567953,
        -6.014326208969578e-05,
        -0.10204842686653137,
        -0.061540234833955765,
        -0.07493681460618973,
        0.0034206113778054714,
        -0.002401412231847644,
        0.0020298841409385204,
        -0.5118192434310913,
        -1.4902642760716844e-05,
        -0.015099693089723587,
        0.0008134396630339324,
        0.0001699454296613112,
        -0.03414343297481537,
        -0.08229552209377289,
        0.0054684290662407875,
        -0.318223774433136,
        -0.024719804525375366,
        -0.0003695743507705629,
        -0.008202665485441685,
        -0.28652340173721313,
        -0.17579759657382965,
        0.00013690674677491188,
        0.001542814658023417,
        -0.03577440604567528,
        -0.021330488845705986,
        -0.3084709644317627,
        -0.010212376713752747,
        -0.019275519996881485,
        -0.017665201798081398,
        0.0025601214729249477,
        -0.05021175369620323,
        -0.034210652112960815,
        -0.005469196476042271,
        -0.017400013282895088,
        -0.043030016124248505,
        -0.04918057098984718,
        -0.0017876630881801248,
        -0.041916754096746445
      ],
      "weights": [
        31.848913192749023,
        31.622774124145508,
        22.262405395507812,
        30.85455322265625,
        35.66224670410156,
        46.968605041503906,
        9.562192916870117,
        13.079850196838379,
        29.827136993408203,
        25.09490203857422,
        31.622774124145508,
        20.07594871520996,
        29.931291580200195,
        31.622774124145508,
        19.55158805847168,
        8.359480857849121,
        31.764543533325195,
        27.259672164916992,
        31.42815399169922,
        31.561649322509766,
        22.770170211791992,
        31.622774124145508,
        31.622774124145508,
        31.622774124145508,
        28.342819213867188,
        31.622774124145508,
        31.57642364501953,
        26.36825942993164,
        12.794296264648438,
        32.333499908447266,
        31.622774124145508,
        31.622774124145508,
        30.94123649597168,
        15.469018936157227,
        31.622774124145508,
        28.897125244140625,
        31.622774124145508,
        31.285964965820312,
        10.052820205688477,
        7.879243850708008,
        31.622774124145508,
        25.886560440063477,
        13.086835861206055,
        31.622774124145508,
        37.2868537902832,
        15.183382034301758,
        8.071317672729492,
        31.488080978393555,
        31.622774124145508,
        19.285287857055664,
        40.22526550292969,
        36.28456115722656,
        25.079933166503906,
        13.09589958190918,
        42.00570297241211,
        31.622774124145508,
        34.5075569152832,
        20.279098510742188,
        32.62667465209961,
        37.36910629272461,
        36.76301956176758,
        31.630035400390625,
        31.622774124145508,
        7.958899021148682
      ]
    },
    {
      "activation": "rectified",
      "architecture": "dense",
      "bias": [
        -0.115542933344841,
        -0.16779591143131256,
        -0.18283377587795258,
        -0.2386634647846222,
        -0.09068174660205841,
        -0.15491414070129395,
        0.1314740628004074,
        -0.1228204220533371,
        -0.18054631352424622,
        -0.12532100081443787,
        0.12020786851644516,
        -0.1831059455871582,
        -0.06977192312479019,
        -0.09039342403411865,
        -0.2043202817440033,
        0.031415075063705444,
        -0.07294505089521408,
        0.03672268986701965,
        -0.24976001679897308,
        -0.09433013945817947,
        0.2641277015209198,
        0.05248051881790161,
        -0.21451185643672943,
        -0.01301795057952404,
        -0.11898308247327805,
        -0.23152253031730652,
        -0.054045189172029495,
        -0.07054632902145386,
        -0.1330394446849823,
        0.08963065594434738,
        -0.08621911704540253,
        -0.26465821266174316
      ],
      "weights": [
        0.31299927830696106,
        -0.04748554900288582,
        0.004338504746556282,
        -0.18026211857795715,
        0.18450599908828735,
        0.1018039882183075,
        0.28950005769729614,
        -0.0772397518157959,
        0.2598505914211273,
        -0.1764090657234192,
        0.08488690108060837,
        -0.05813340097665787,
        -0.2433127909898758,
        -0.15954186022281647,
        -0.054465845227241516,
        0.06292834132909775,
        -0.07404214888811111,
        0.11909908056259155,
        0.1817730963230133,
        0.04222436249256134,
        -0.31666773557662964,
        -0.18049141764640808,
        -0.020022321492433548,
        -0.16753634810447693,
        0.1820121705532074,
        0.32869094610214233,
        -0.11881587654352188,
        0.41690707206726074,
        -0.17265424132347107,
        0.09919166564941406,
        -0.1281862109899521,
        0.17500676214694977,
        0.055786456912755966,
        0.002045652363449335,
        -0.06727373600006104,
        0.0676678866147995,
        -0.1378389298915863,
        -0.11449715495109558,
        -0.1886722594499588,
        0.07856113463640213,
        -0.18176114559173584,
        0.12362512946128845,
        0.17511509358882904,
        -0.1617397964000702,
        0.30879145860671997,
        0.17054808139801025,
        -0.17012657225131989,
        -0.1342024803161621,
        -0.2886281907558441,
        -0.05902700871229172,
        0.0721949115395546,
        -0.2460034042596817,
        -0.09889157116413116,
        -0.0978178009390831,
        -0.4262276291847229,
        0.04845436289906502,
        0.1791933923959732,
        0.09546616673469543,
        0.45728954672813416,
        -0.028941649943590164,
        0.007466362789273262,
        -0.09877227991819382,
        0.06126121059060097,
        -0.28688833117485046,
        -0.07069259136915207,
        0.07561347633600235,
        0.07869237661361694,
        -0.16108016669750214,
        -0.03638355806469917,
        -0.13226789236068726,
        -0.25043919682502747,
        -0.2250773012638092,
        0.20531970262527466,
        -0.0013304377207532525,
        0.0011297038290649652,
        -0.07934289425611496,
        -0.07896262407302856,
        0.005031651351600885,
        -0.33548682928085327,
        -0.10203927010297775,
        -0.026842664927244186,
        0.07316343486309052,
        0.0020051291212439537,
        0.00017794952145777643,
        0.2481551170349121,
        -0.10373159497976303,
        0.09660237282514572,
        -0.0938790887594223,
        -0.06258786469697952,
        0.012430625967681408,
        0.001974361715838313,
        0.3980247676372528,
        -0.3193444311618805,
        0.24000483751296997,
        -0.32166239619255066,
        0.3247268795967102,
        -0.33828553557395935,
        0.06240386143326759,
        0.006408829241991043,
        0.12417801469564438,
        -0.2192234992980957,
        -0.0182341281324625,
        0.004213167820125818,
        -0.13007870316505432,
        -0.1690349578857422,
        -0.08381714671850204,
        -0.0619380958378315,
        0.27917197346687317,
        -0.05133314058184624,
        0.07356307655572891,
        -0.11986599862575531,
        -0.010662559419870377,
        -0.056881748139858246,
        -0.12515369057655334,
        -0.4681161642074585,
        0.4300444424152374,
        0.07849276065826416,
        -0.01235122885555029,
        -0.08755838125944138,
        0.048938870429992676,
        0.39489009976387024,
        -0.22007140517234802,
        0.573893129825592,
        0.7142914533615112,
        -0.3316303491592407,
        -0.042681775987148285,
        0.25835150480270386,
        -0.09412603825330734,
        -0.1946912258863449,
        0.36684906482696533,
        0.14030307531356812,
        -0.2852892577648163,
        0.0028981296345591545,
        -0.019167978316545486,
        0.13489340245723724,
        -0.11909610778093338,
        -0.04165927693247795,
        0.001637509441934526,
        -0.04466947540640831,
        0.20208194851875305,
        0.006845897063612938,
        0.19739513099193573,
        0.05597769841551781,
        -0.06149866059422493,
        0.06728511303663254,
        -0.0021565472707152367,
        0.053721144795417786,
        0.010990651324391365,
        -0.02469208650290966,
        0.03859058767557144,
        0.0653621256351471,
        0.23342010378837585,
        0.013497080653905869,
        0.4290461838245392,
        0.021629923954606056,
        0.2597358226776123,
        -0.22072511911392212,
        -0.3354944884777069,
        -0.34474852681159973,
        0.08470307290554047,
        -0.12181811034679413,
        0.024359695613384247,
        -0.008948751725256443,
        0.02244517393410206,
        -0.10773701965808868,
        -0.017901569604873657,
        0.012133866548538208,
        -0.17414288222789764,
        -0.40838390588760376,
        0.06870071589946747,
        -0.13351795077323914,
        -0.03430315479636192,
        0.3034377098083496,
        -0.12474750727415085,
        -0.17005260288715363,
        -0.02068376913666725,
        -0.2589590549468994,
        -0.2238038331270218,
        0.15327991545200348,
        -0.069209024310112,
        -1.382395625114441,
        0.0005283433711156249,
        -0.21307498216629028,
        -0.16863754391670227,
        0.21115699410438538,
        0.040316760540008545,
        -0.18494831025600433,
        0.3165285885334015,
        0.02380240149796009,
        0.06545457243919373,
        -0.018201474100351334,
        -0.08875509351491928,
        -0.01576341688632965,
        0.06653482466936111,
        0.01593657024204731,
        -0.4681461453437805,
        -0.3531999886035919,
        -0.057985611259937286,
        -0.243741974234581,
        0.15752474963665009,
        0.3110286593437195,
        0.609711229801178,
        -0.31517285108566284,
        0.02890532650053501,
        0.15660671889781952,
        0.22405222058296204,
        0.2514805495738983,
        -0.165068119764328,
        0.010703211650252342,
        0.010982483625411987,
        -0.008983992040157318,
        -0.01756194420158863,
        0.14844100177288055,
        -0.2565220892429352,
        0.10954108089208603,
        0.39840930700302124,
        -4.430568515090272e-05,
        0.21035242080688477,
        0.0006422226433642209,
        0.0668678730726242,
        0.2204294502735138,
        -0.12089459598064423,
        -0.16195909678936005,
        0.4586780071258545,
        -0.44012778997421265,
        -0.05858131870627403,
        0.008652000688016415,
        -0.19119583070278168,
        -0.2179691344499588,
        -0.009090974926948547,
        -0.10065443068742752,
        0.1971743255853653,
        -0.410025954246521,
        -0.023038536310195923,
        -0.09218791872262955,
        0.06059182062745094,
        -0.02133934758603573,
        0.24144689738750458,
        -0.05807662010192871,
        0.02182709239423275,
        -0.05938592180609703,
        0.21517737209796906,
        -0.11335740983486176,
        -0.1998741775751114,
        0.33047884702682495,
        0.26434940099716187,
        0.20949417352676392,
        -0.38627851009368896,
        -0.02437039650976658,
        -0.0031275625806301832,
        0.09830360114574432,
        -0.15965178608894348,
        0.1792968213558197,
        -0.03287540748715401,
        0.15496715903282166,
        0.12784500420093536,
        0.021760424599051476,
        0.15099143981933594,
        -0.09800127893686295,
        -0.20867297053337097,
        -0.01902686432003975,
        -0.5359992384910583,
        -0.01975288800895214,
        0.06824145466089249,
        -0.3401501178741455,
        0.12257517874240875,
        -0.07837417721748352,
        0.04492451995611191,
        0.21439039707183838,
        -0.041874125599861145,
        -0.056119404733181,
        -0.2185068428516388,
        -0.03069864772260189,
        0.1103176474571228,
        -0.02416761964559555,
        -0.04480617120862007,
        0.30836495757102966,
        -0.182851180434227,
        0.09131350368261337,
        -0.07903578132390976,
        0.12560434639453888,
        -0.03276961296796799,
        -0.02078617364168167,
        -0.2191733717918396,
        0.0064687286503612995,
        -0.04911019653081894,
        -0.26475033164024353,
        -0.04408397525548935,
        -0.010817192494869232,
        0.04808216169476509,
        -0.009586465544998646,
        -0.17858436703681946,
        -0.04000234976410866,
        0.016182981431484222,
        0.030526433140039444,
        -0.09584053605794907,
        -0.19987709820270538,
        -0.09615079313516617,
        -0.005116674583405256,
        0.09510644525289536,
        -0.003936820663511753,
        -0.04538160562515259,
        0.05744931101799011,
        0.025611162185668945,
        -0.018750019371509552,
        0.004826066549867392,
        0.22828379273414612,
        0.15337124466896057,
        -0.04726625978946686,
        -0.3051713705062866,
        0.020929517224431038,
        0.03580646589398384,
        0.30610355734825134,
        0.19157768785953522,
        -0.2652612328529358,
        -0.42998892068862915,
        0.16013695299625397,
        0.49333345890045166,
        -0.022469807416200638,
        0.07235582917928696,
        -0.07361205667257309,
        0.1966482698917389,
        -0.21085160970687866,
        -0.07191061973571777,
        0.11818893253803253,
        0.018115339800715446,
        0.2316899448633194,
        -0.010380422696471214,
        0.10336370021104813,
        -0.01754649169743061,
        -0.25681987404823303,
        0.28150102496147156,
        0.13225701451301575,
        0.0007800707244314253,
        -0.03413007780909538,
        0.10574031621217728,
        -0.005309922620654106,
        0.24235183000564575,
        0.008517483249306679,
        -0.013523947447538376,
        -0.28288140892982483,
        -0.37051987648010254,
        0.13829632103443146,
        0.27104923129081726,
        -0.26706498861312866,
        0.3672621548175812,
        -0.005862151738256216,
        -0.152439683675766,
        -0.04188896715641022,
        -0.5323790311813354,
        -0.34219828248023987,
        0.20816344022750854,
        -0.26966148614883423,
        -0.013567849062383175,
        -0.0024085305631160736,
        -0.08021506667137146,
        -0.29576244950294495,
        -0.0021703275851905346,
        -0.26234713196754456,
        0.07061406224966049,
        -0.27261602878570557,
        0.1671571135520935,
        0.20194272696971893,
        -0.026855386793613434,
        -0.5010273456573486,
        -0.017540212720632553,
        0.009477628394961357,
        -0.003081465605646372,
        -0.20427554845809937,
        -0.20368820428848267,
        0.25391432642936707,
        -0.026577919721603394,
        -0.11456354707479477,
        0.08598557859659195,
        0.09478982537984848,
        -0.3277893364429474,
        -0.22745268046855927,
        0.2641826272010803,
        0.21286055445671082,
        0.0061763557605445385,
        0.13134409487247467,
        0.06225070729851723,
        0.1775401085615158,
        -0.03838139772415161,
        -0.4328387379646301,
        -0.0045685674995183945,
        -0.011284861713647842,
        0.047953180968761444,
        -0.24980951845645905,
        -0.14057223498821259,
        -0.34041401743888855,
        -0.1792181134223938,
        -0.15852881968021393,
        0.2665714621543884,
        0.2171105593442917,
        0.1484476625919342,
        -0.10024163872003555,
        -0.29110807180404663,
        -0.23142053186893463,
        0.1487121284008026,
        0.034843724220991135,
        0.11409083008766174,
        0.21842484176158905,
        0.15717223286628723,
        0.26944994926452637,
        0.14590288698673248,
        0.07752341032028198,
        0.17710468173027039,
        0.09249337762594223,
        -0.14581884443759918,
        -0.17174924910068512,
        0.023368284106254578,
        -0.21213984489440918,
        0.3316132128238678,
        0.3050857484340668,
        -0.2366493046283722,
        -0.018213409930467606,
        -0.14773549139499664,
        0.10918677598237991,
        -0.05930180102586746,
        -0.173119455575943,
        0.06683672964572906,
        0.011769840493798256,
        0.05876181274652481,
        -0.07421158254146576,
        -0.10771895200014114,
        -0.4056854248046875,
        -0.010294777341187,
        -0.06850524246692657,
        0.2502577602863312,
        -0.20012201368808746,
        0.0625876784324646,
        0.18687938153743744,
        0.011595547199249268,
        -0.04573429748415947,
        0.23121170699596405,
        -0.11877123266458511,
        -0.1327996551990509,
        0.22943948209285736,
        -0.06105499714612961,
        0.14432112872600555,
        -0.16836640238761902,
        -0.5286943912506104,
        0.12616214156150818,
        0.09336681663990021,
        0.27820080518722534,
        -0.2464228868484497,
        0.04603811725974083,
        0.00940125435590744,
        0.40541648864746094,
        -0.029253005981445312,
        0.0809502899646759,
        -0.23330655694007874,
        0.000365058338502422,
        -0.048167262226343155,
        -0.3917417824268341,
        -0.10211562365293503,
        -0.19859889149665833,
        -0.09895382821559906,
        -0.043482065200805664,
        0.2372513860464096,
        0.0011751167476177216,
        0.08573290705680847,
        -0.020079627633094788,
        -0.05888482928276062,
        0.2870026230812073,
        -0.013259650208055973,
        -0.043557438999414444,
        0.18884813785552979,
        -0.16895101964473724,
        0.03791707009077072,
        0.09209633618593216,
        0.058508653193712234,
        0.40286150574684143,
        -0.022504568099975586,
        -0.2273193895816803,
        -0.23032279312610626,
        -0.013837856240570545,
        -0.06509622186422348,
        0.03997006639838219,
        -0.07335402071475983,
        -0.11182678490877151,
        -0.01114098820835352,
        -0.5591319799423218,
        -0.1634453982114792,
        -0.022534264251589775,
        0.18670719861984253,
        0.013484717346727848,
        -0.0714687705039978,
        -0.008912762627005577,
        -0.06496452540159225,
        -0.005906540900468826,
        0.2974560558795929,
        0.18612812459468842,
        0.1549796164035797,
        -0.023672843351960182,
        -0.154276505112648,
        -0.39847737550735474,
        -0.08375430107116699,
        0.008697343058884144,
        -0.09013064205646515,
        0.19957831501960754,
        0.016205504536628723,
        -0.21329186856746674,
        -0.10913846641778946,
        0.040961217135190964,
        -0.004589238669723272,
        0.12943075597286224,
        0.07459316402673721,
        -0.18941029906272888,
        0.02832910418510437,
        0.2348257452249527,
        -0.038570065051317215,
        0.3445880711078644,
        -0.1988302618265152,
        -0.045889098197221756,
        0.08251290023326874,
        -0.07772094011306763,
        0.03201259672641754,
        -0.32660752534866333,
        -0.33858221769332886,
        0.3073938488960266,
        -0.3236142694950104,
        -0.15222574770450592,
        -0.2347533255815506,
        0.06126544252038002,
        -0.16114236414432526,
        0.22965207695960999,
        0.02417828142642975,
        0.18568900227546692,
        0.03844594210386276,
        0.006886447314172983,
        -0.21484827995300293,
        -0.23895761370658875,
        0.3537294268608093,
        0.17848221957683563,
        0.05693298578262329,
        0.15358468890190125,
        -0.005105126183480024,
        -0.14493706822395325,
        0.15730680525302887,
        0.13818180561065674,
        -0.38791781663894653,
        0.3809676170349121,
        -0.3606632351875305,
        -0.32708895206451416,
        0.0075319730676710606,
        0.22990067303180695,
        -0.013544535264372826,
        -0.0024373990017920732,
        0.2530173361301422,
        0.058881618082523346,
        0.005454973317682743,
        -0.27828487753868103,
        0.5676809549331665,
        0.384052038192749,
        -0.03901924937963486,
        -0.08551967889070511,
        -0.27934467792510986,
        0.02499384433031082,
        -0.23754484951496124,
        -0.1489638090133667,
        -0.1685187816619873,
        0.10586056113243103,
        -0.4473212659358978,
        -0.06077214702963829,
        0.024061482399702072,
        -0.30680692195892334,
        0.0665733739733696,
        0.09703657776117325,
        -0.0679522305727005,
        -0.17242495715618134,
        0.14076834917068481,
        -0.07130947709083557,
        0.2865551710128784,
        -0.15403582155704498,
        -0.20968520641326904,
        0.26854223012924194,
        0.2681295871734619,
        -0.23547208309173584,
        -0.13121917843818665,
        0.07214545458555222,
        -0.10189107060432434,
        0.015930168330669403,
        0.15806421637535095,
        -0.14368224143981934,
        0.0672902837395668,
        -0.27373000979423523,
        -0.059663280844688416,
        -0.07269804179668427,
        0.31038182973861694,
        -0.15467742085456848,
        0.011428054422140121,
        0.08426610380411148,
        -0.018232015892863274,
        -0.014993691816926003,
        0.20594193041324615,
        -0.06322678923606873,
        0.15356861054897308,
        -0.08221220970153809,
        -0.4005170464515686,
        0.2619498074054718,
        -0.0034782851580530405,
        -0.05971967801451683,
        -0.19634796679019928,
        0.1748756468296051,
        -0.046079475432634354,
        0.2874298393726349,
        0.09552057832479477,
        -0.004685529507696629,
        0.009976563043892384,
        0.22266514599323273,
        -0.20262153446674347,
        -0.02708664909005165,
        -0.22858871519565582,
        -0.3124108910560608,
        -0.3295881450176239,
        -0.13649287819862366,
        0.11313845962285995,
        0.08391882479190826,
        -0.15475381910800934,
        0.06725504994392395,
        -0.09916495531797409,
        -0.026564519852399826,
        -0.2487587183713913,
        0.28582578897476196,
        0.17596444487571716,
        -0.3889520764350891,
        0.26543542742729187,
        -0.07850588858127594,
        0.054527197033166885,
        -0.2342444509267807,
        0.003139265114441514,
        0.10290057212114334,
        0.3493458032608032,
        0.10281486064195633,
        0.18836821615695953,
        0.14622285962104797,
        -0.001564898295328021,
        0.17415755987167358,
        -0.029657410457730293,
        0.10776075720787048,
        0.08401069790124893,
        -0.06412718445062637,
        -0.24645404517650604,
        -0.1769193857908249,
        -0.4021533131599426,
        0.1032710149884224,
        0.09718228876590729,
        0.0706125944852829,
        -0.05265696346759796,
        -0.05521170049905777,
        0.2282910943031311,
        -0.09486091136932373,
        0.07703682780265808,
        -0.18412736058235168,
        -0.1496036797761917,
        -0.4657764136791229,
        0.002331771422177553,
        -0.0396868959069252,
        0.06004625931382179,
        0.22986893355846405,
        -0.09618332982063293,
        0.03677038103342056,
        -0.004612076561897993,
        -0.1064329668879509,
        -0.10509013384580612,
        -0.1592767834663391,
        -0.068444162607193,
        -0.2124897837638855,
        0.11143442243337631,
        -0.07466180622577667,
        0.2710922062397003,
        0.0976586565375328,
        0.04769463464617729,
        0.19431889057159424,
        -0.15111570060253143,
        -0.021125201135873795,
        0.17267504334449768,
        -0.08764016628265381,
        0.3560248613357544,
        -0.11479800194501877,
        -0.013351126573979855,
        -0.1329321563243866,
        -0.2697068452835083,
        0.31777629256248474,
        0.04858984798192978,
        0.11433515697717667,
        0.20325197279453278,
        0.017286796122789383,
        -0.46181368827819824,
        0.020017122849822044,
        -0.2968626916408539,
        0.2643452286720276,
        -0.18005454540252686,
        -0.06995945423841476,
        0.15810440480709076,
        -0.3367324769496918,
        0.13332144916057587,
        -0.4468330442905426,
        -0.1771431416273117,
        0.12158911675214767,
        -0.12611623108386993,
        -0.1265774965286255,
        0.07305017858743668,
        0.31627270579338074,
        -0.09950290620326996,
        -0.294355183839798,
        0.3326414227485657,
        -0.26147395372390747,
        0.24035555124282837,
        -0.18290647864341736,
        0.1458764225244522,
        0.032074835151433945,
        -0.3225747346878052,
        -0.07557704299688339,
        0.10526712983846664,
        0.21556676924228668,
        -0.253175288438797,
        0.02255268581211567,
        0.04014763981103897,
        0.06517576426267624,
        0.08342384546995163,
        0.02691200189292431,
        -0.06175483018159866,
        0.03723013401031494,
        0.3622699975967407,
        0.04142526909708977,
        -0.2735382914543152,
        0.04611913859844208,
        0.011661680415272713,
        -0.16909362375736237,
        0.08263663202524185,
        0.3669658303260803,
        -0.04163335636258125,
        0.14536596834659576,
        -0.08321942389011383,
        -0.1990513801574707,
        0.05603408440947533,
        -0.22850678861141205,
        0.07276090234518051,
        -0.04271787032485008,
        -0.15529115498065948,
        0.14478637278079987,
        -0.27825865149497986,
        -0.20588530600070953,
        0.2747724652290344,
        0.3433932662010193,
        0.19959145784378052,
        0.21376129984855652,
        0.03667891398072243,
        -0.05229586362838745,
        -0.10290902853012085,
        0.04086727276444435,
        0.21207652986049652,
        -0.0537942573428154,
        -0.43377047777175903,
        -0.13755132257938385,
        0.4881395995616913,
        -0.10782837122678757,
        -0.3244304060935974,
        0.10263875871896744,
        -0.08091128617525101,
        -0.3888750672340393,
        0.1556345522403717,
        -0.0996750071644783,
        0.2732310891151428,
        -0.06527625769376755,
        0.17273716628551483,
        0.07220856100320816,
        -0.07948008179664612,
        -0.16056852042675018,
        -0.4086160361766815,
        -0.14903388917446136,
        0.08431992679834366,
        0.07574685662984848,
        0.2218598574399948,
        0.18903380632400513,
        -0.15494856238365173,
        0.10108861327171326,
        0.1917862445116043,
        -0.032080791890621185,
        -0.05825376510620117,
        0.12989351153373718,
        -0.010436237789690495,
        -0.2514658272266388,
        0.010598696768283844,
        0.018490394577383995,
        -0.18490377068519592,
        -0.03796558454632759,
        0.006437229923903942,
        0.22688578069210052,
        0.37375083565711975,
        0.10785352438688278,
        0.0059942156076431274,
        -0.3226028084754944,
        -0.30500197410583496,
        -0.23027628660202026,
        0.01673474907875061,
        -0.09110109508037567,
        -0.01657252572476864,
        -0.18491284549236298,
        0.0032748987432569265,
        0.0936787948012352,
        -0.20424097776412964,
        0.013729185797274113,
        0.09646179527044296,
        -0.07994838804006577,
        -0.07918091863393784,
        -0.06082425266504288,
        0.16982172429561615,
        0.22767937183380127,
        0.335656076669693,
        0.1207088753581047,
        -0.08960029482841492,
        0.009045199491083622,
        -0.08961710333824158,
        0.11386618763208389,
        -0.22089087963104248,
        -0.2559996545314789,
        -0.27404895424842834,
        0.05658736079931259,
        -0.25700485706329346,
        0.12770679593086243,
        -0.14538522064685822,
        -0.10970636457204819,
        0.09525655210018158,
        -0.33904922008514404,
        0.2110636681318283,
        0.207723006606102,
        0.21076670289039612,
        -0.1153804138302803,
        -0.5135040879249573,
        -0.07653600722551346,
        0.22763749957084656,
        -0.06752469390630722,
        0.3643041253089905,
        0.36896735429763794,
        0.15093186497688293,
        0.0434974730014801,
        -0.23890593647956848,
        -0.17764043807983398,
        0.09127549827098846,
        -0.11743571609258652,
        -0.10720361769199371,
        -0.022453585639595985,
        -0.036465175449848175,
        0.19762425124645233,
        -0.002525095362216234,
        0.2806968092918396,
        0.009533870033919811,
        0.007995598949491978,
        0.13199394941329956,
        -0.17672592401504517,
        -0.06814339756965637,
        0.20160630345344543,
        0.2363390475511551,
        -0.017602303996682167,
        0.0022265564184635878,
        -0.1591034233570099,
        -0.05238603055477142,
        0.13961507380008698,
        0.03985590115189552,
        0.26253023743629456,
        0.07611135393381119,
        0.106885626912117,
        0.009820017963647842,
        -0.16473083198070526,
        -0.017120609059929848,
        0.006933864671736956,
        0.12601405382156372,
        -0.2255823165178299,
        -0.18347756564617157,
        -0.1883019208908081,
        -0.007479923311620951,
        0.17944453656673431,
        0.3581361174583435,
        -0.025733770802617073,
        -0.07981979846954346,
        0.00737666105851531,
        -0.04335319995880127,
        0.29727110266685486,
        0.3304549753665924,
        -0.30297088623046875,
        0.2757800817489624,
        -0.01249336451292038,
        0.13369868695735931,
        -0.16006997227668762,
        0.07586505264043808,
        0.12710656225681305,
        -0.12124283611774445,
        0.24973297119140625,
        0.23314005136489868,
        0.2518606185913086,
        0.23231466114521027,
        0.14250193536281586,
        0.14933331310749054,
        0.04847155138850212,
        -0.11118543893098831,
        -0.20210090279579163,
        -0.18106715381145477,
        0.3836417496204376,
        0.19427885115146637,
        -0.24257159233093262,
        -0.057649996131658554,
        -0.13796184957027435,
        -0.26333242654800415,
        0.01767559163272381,
        0.4082598388195038,
        0.06623442471027374,
        0.037991467863321304,
        0.025329360738396645,
        -0.0024235255550593138,
        0.440166711807251,
        0.010784009471535683,
        0.016503939405083656,
        0.33156368136405945,
        -0.0006229103310033679,
        0.37003257870674133,
        0.26131680607795715,
        -0.01182005275040865,
        0.2810367941856384,
        -0.012283103540539742,
        0.0634850561618805,
        0.024982381612062454,
        0.027233019471168518,
        -0.39180228114128113,
        0.3811575472354889,
        -0.39806127548217773,
        -0.0003145289374515414,
        -0.019730158150196075,
        -0.19121839106082916,
        -0.18946942687034607,
        -0.017804468050599098,
        0.022351708263158798,
        0.08903913199901581,
        -0.23741135001182556,
        -0.15110449492931366,
        -0.7587336897850037,
        0.2531367242336273,
        0.060377053916454315,
        0.20339883863925934,
        -0.013389402069151402,
        -0.04339277371764183,
        -0.13068951666355133,
        0.04732295498251915,
        -0.032213084399700165,
        0.16306397318840027,
        -0.35473787784576416,
        -0.279742568731308,
        -0.2882881760597229,
        -0.26467788219451904,
        0.049675989896059036,
        0.05304771661758423,
        0.029280001297593117,
        -0.17612768709659576,
        0.13210929930210114,
        -0.03854643553495407,
        0.3313610851764679,
        -0.21656735241413116,
        -0.27252981066703796,
        -0.1384960412979126,
        0.12111712992191315,
        -0.12961465120315552,
        -0.01215977594256401,
        -0.1804923564195633,
        -0.3912295401096344,
        -0.008159993216395378,
        -0.06579402089118958,
        0.01395278237760067,
        0.024874044582247734,
        -0.13660462200641632,
        0.0993741974234581,
        -0.16067403554916382,
        -0.3431594967842102,
        0.17010200023651123,
        -0.029793046414852142,
        -0.1316624879837036,
        0.1373443454504013,
        0.08601321280002594,
        -0.12165675312280655,
        0.1497984081506729,
        -0.12154226750135422,
        0.2422628104686737,
        0.20175029337406158,
        0.01191131304949522,
        0.08924487233161926,
        -0.11117125302553177,
        0.0069024162366986275,
        0.025804417207837105,
        0.09405379742383957,
        0.1417972296476364,
        0.20481625199317932,
        -0.33721616864204407,
        -0.02330419234931469,
        0.017687033861875534,
        -0.21118225157260895,
        0.05449808016419411,
        0.17014947533607483,
        0.4250441789627075,
        0.035758890211582184,
        -0.14246638119220734,
        0.12205639481544495,
        0.1119779720902443,
        -0.3510124981403351,
        0.34992551803588867,
        -0.05739917978644371,
        0.10771427303552628,
        0.1699068248271942,
        0.03678007051348686,
        -0.14044973254203796,
        0.019530830904841423,
        -0.5946993231773376,
        0.2543478310108185,
        0.11741670221090317,
        0.2630564570426941,
        0.1889677196741104,
        -0.33473947644233704,
        -0.05869578197598457,
        -0.260393351316452,
        4.698253178503364e-05,
        -0.02478973940014839,
        0.04266050085425377,
        0.21827644109725952,
        -0.2534852623939514,
        -0.1169353500008583,
        0.026539849117398262,
        -0.06379170715808868,
        -0.19843463599681854,
        0.4946734607219696,
        0.07378512620925903,
        -0.1931401789188385,
        0.03375574201345444,
        -0.02349592186510563,
        -0.11390476673841476,
        -0.1561823934316635,
        -0.024712571874260902,
        0.030863139778375626,
        0.22003991901874542,
        0.04811382666230202,
        -0.03279205784201622,
        0.15525242686271667,
        0.015387067571282387,
        0.006391993258148432,
        -0.3080390691757202,
        -0.1902521699666977,
        0.07685316354036331,
        0.21498854458332062,
        -0.09799029678106308,
        0.1470133662223816,
        0.012128886766731739,
        0.22431743144989014,
        0.08280374854803085,
        -0.09168319404125214,
        -0.029956141486763954,
        0.12469258159399033,
        0.04268898814916611,
        -0.1148051992058754,
        -0.015952592715620995,
        0.06318498402833939,
        0.022921690717339516,
        -0.03435854986310005,
        0.09672678261995316,
        -0.009245091117918491,
        0.02662009745836258,
        0.004682586994022131,
        -0.4405892789363861,
        -0.14792963862419128,
        0.09054791182279587,
        0.05261845141649246,
        0.21314120292663574,
        -0.0034843836911022663,
        0.13731999695301056,
        0.05174104496836662,
        0.11387351155281067,
        -0.3557378649711609,
        0.27706605195999146,
        0.10262643545866013,
        -0.36749395728111267,
        0.0019430732354521751,
        -0.35183513164520264,
        0.05103074759244919,
        -0.14696629345417023,
        -0.09111585468053818,
        0.15216000378131866,
        -0.37591320276260376,
        -0.05519036203622818,
        0.07339339703321457,
        0.25664255023002625,
        -0.182905912399292,
        0.11984208226203918,
        0.05919921025633812,
        -0.513656497001648,
        0.053800709545612335,
        0.04745570942759514,
        0.14651964604854584,
        -0.008237333968281746,
        0.02251543290913105,
        -0.020428799092769623,
        -0.1277654767036438,
        0.15263943374156952,
        0.030751604586839676,
        -0.002683453494682908,
        -0.1600254476070404,
        0.003791971830651164,
        -0.3164888620376587,
        0.031414683908224106,
        0.037072572857141495,
        -0.12923218309879303,
        0.07134699821472168,
        -0.16726519167423248,
        -0.17533764243125916,
        0.03322701156139374,
        0.10917982459068298,
        -0.0065033771097660065,
        -0.15390510857105255,
        0.24037963151931763,
        -0.20707127451896667,
        0.19037646055221558,
        0.18528452515602112,
        0.03319340571761131,
        -0.08630191534757614,
        0.012293311767280102,
        0.21640662848949432,
        -0.03738038241863251,
        -0.0010931272991001606,
        -0.02914266660809517,
        0.20482032001018524,
        0.2352571189403534,
        0.06802988052368164,
        0.05124770477414131,
        -0.19742842018604279,
        0.17273172736167908,
        0.32117998600006104,
        0.11055366694927216,
        0.026729781180620193,
        0.06645813584327698,
        -0.04750813916325569,
        -0.4181624948978424,
        0.0988592579960823,
        -0.4173078238964081,
        0.14911679923534393,
        0.04360222816467285,
        -0.08336986601352692,
        -0.07563760876655579,
        -0.17064882814884186,
        0.06960908323526382,
        -0.5230316519737244,
        -0.012118448503315449,
        -0.2307245433330536,
        -0.018276596441864967,
        -0.03804757818579674,
        -0.007502990309149027,
        0.09663587063550949,
        0.14558827877044678,
        -0.3136376440525055,
        -0.24698367714881897,
        0.47758305072784424,
        0.05643443763256073,
        -0.3692011535167694,
        -0.4177021384239197,
        0.020824352279305458,
        -0.1295149177312851,
        -0.18349047005176544,
        -0.26925233006477356,
        -0.01719348505139351,
        0.06380651891231537,
        -0.04368369281291962,
        -0.011644973419606686,
        -0.15095414221286774,
        0.018550997599959373,
        0.008075859397649765,
        0.18139991164207458,
        -0.43468353152275085,
        0.09982933104038239,
        0.1424049586057663,
        -0.31591981649398804,
        0.3469559848308563,
        0.016310201957821846,
        0.01621061936020851,
        0.09921234846115112,
        0.21430519223213196,
        -0.06376268714666367,
        0.060427527874708176,
        -0.3639618456363678,
        -0.2167113721370697,
        -0.010848072357475758,
        0.08429156988859177,
        -0.22892221808433533,
        -0.0007186614675447345,
        -0.18153436481952667,
        0.06493518501520157,
        -0.46280524134635925,
        0.4138276278972626,
        -0.095040462911129,
        0.1434250921010971,
        0.18716968595981598,
        0.28508543968200684,
        -0.1532798409461975,
        0.009925473481416702,
        -0.32365262508392334,
        0.05733640491962433,
        -0.2516460120677948,
        0.014192682690918446,
        -0.0015412431675940752,
        0.039537105709314346,
        0.352817177772522,
        -0.07873713225126266,
        -0.39479339122772217,
        -0.21982431411743164,
        -0.18888865411281586,
        -0.39869046211242676,
        -0.2803296744823456,
        -0.2665524482727051,
        0.3089754283428192,
        0.047382552176713943,
        -0.07116511464118958,
        0.145361065864563,
        0.1734631061553955,
        0.08704687654972076,
        0.034572046250104904,
        -0.6744418740272522,
        -0.08793341368436813,
        -0.15571379661560059,
        -0.13527807593345642,
        -0.11091919988393784,
        -0.16304276883602142,
        0.056415949016809464,
        0.378816157579422,
        0.006968110334128141,
        -0.2163121998310089,
        0.11095575988292694,
        0.03381085768342018,
        -0.09437438100576401,
        0.024477142840623856,
        0.010742081329226494,
        0.20283237099647522,
        -0.10489136725664139,
        -0.15680037438869476,
        -0.11467323452234268,
        0.44649219512939453,
        0.2098621129989624,
        0.015756813809275627,
        0.11998198181390762,
        0.18485628068447113,
        0.1335490643978119,
        -0.19803494215011597,
        -0.10692241042852402,
        0.1327640265226364,
        -0.03153141960501671,
        0.008429578505456448,
        -0.1833399534225464,
        0.029971808195114136,
        -0.002545398660004139,
        0.07639473676681519,
        -0.031392864882946014,
        -0.21883642673492432,
        -0.10115620493888855,
        0.004593776073306799,
        -0.17099204659461975,
        -0.04400013014674187,
        -0.14496798813343048,
        0.2509901821613312,
        -0.009162429720163345,
        -0.12325632572174072,
        -0.1092209592461586,
        0.19385598599910736,
        0.2197154015302658,
        0.21853236854076385,
        -0.027973035350441933,
        -0.5025792121887207,
        -0.24994876980781555,
        0.4313996732234955,
        0.15254265069961548,
        0.5963611006736755,
        0.013558221980929375,
        0.17143814265727997,
        -0.1625358909368515,
        0.12753668427467346,
        0.23562845587730408,
        -0.0987015813589096,
        -0.25996989011764526,
        -0.017164044082164764,
        0.33479082584381104,
        0.17964531481266022,
        0.016497354954481125,
        0.14099082350730896,
        0.0821676179766655,
        0.006710695568472147,
        -0.19477294385433197,
        0.008327620103955269,
        0.013317873701453209,
        -0.03500854969024658,
        0.00414999620988965,
        -0.18040907382965088,
        -0.4065207242965698,
        -0.08072491735219955,
        -0.1023009717464447,
        0.09654038399457932,
        0.10910329967737198,
        -0.023234784603118896,
        0.3059704899787903,
        -0.21838730573654175,
        -0.18007273972034454,
        -0.09046719968318939,
        -0.2596161961555481,
        0.16783863306045532,
        -0.040279991924762726,
        -0.29335445165634155,
        0.04546480253338814,
        0.2609863579273224,
        -0.350949227809906,
        0.15520042181015015,
        -0.4448302984237671,
        0.04416552558541298,
        0.061827681958675385,
        0.0032853721641004086,
        -0.11157793551683426,
        -0.21161961555480957,
        0.1954127699136734,
        0.1820337176322937,
        -0.01694304496049881,
        0.5601000189781189,
        -0.20105396211147308,
        -0.035457320511341095,
        0.35365816950798035,
        0.030976219102740288,
        -0.10366995632648468,
        0.47501909732818604,
        -0.16134114563465118,
        0.028920818120241165,
        0.0579741932451725,
        0.08877339214086533,
        -0.48140230774879456,
        0.11596376448869705,
        0.28324252367019653,
        -0.17595632374286652,
        0.09936139732599258,
        -0.14858031272888184,
        -0.5416164398193359,
        0.12689679861068726,
        -0.01988265849649906,
        -0.014154086820781231,
        -0.3623484969139099,
        -0.11508965492248535,
        0.21463808417320251,
        0.11526621878147125,
        0.19828040897846222,
        0.04071725159883499,
        0.25759926438331604,
        -0.276032418012619,
        0.09322933107614517,
        -0.0638393685221672,
        0.31737786531448364,
        -0.009685494937002659,
        0.3046964406967163,
        0.245608389377594,
        -0.07063823193311691,
        0.25167545676231384,
        0.09416715800762177,
        -0.10089757293462753,
        -0.09707851707935333,
        0.05022169649600983,
        -0.010370667092502117,
        0.046151190996170044,
        -0.057123057544231415,
        0.05476357415318489,
        -0.06667429208755493,
        -0.276259183883667,
        -0.15488937497138977,
        0.0011189907090738416,
        -0.4968447685241699,
        -0.20019757747650146,
        -0.04514959454536438,
        0.03662300109863281,
        0.12464705854654312,
        -0.06726408749818802,
        -0.001710587297566235,
        -0.06389220803976059,
        0.1295892894268036,
        0.09574959427118301,
        0.021626640111207962,
        -0.39101794362068176,
        0.02264266461133957,
        0.21701140701770782,
        0.051496267318725586,
        0.10894707590341568,
        -0.15449512004852295,
        -0.2538638710975647,
        -0.127094104886055,
        -0.07993821054697037,
        0.035825300961732864,
        0.23539979755878448,
        0.26267483830451965,
        -0.14394511282444,
        0.17995557188987732,
        -0.08869665116071701,
        0.3406282961368561,
        0.4208485186100006,
        -0.022068938240408897,
        0.2254166454076767,
        -0.16233974695205688,
        0.36555153131484985,
        0.023624565452337265,
        -0.21743634343147278,
        0.27548331022262573,
        -0.11106826364994049,
        0.0035241730511188507,
        0.6731417775154114,
        0.3631303012371063,
        0.4462916851043701,
        -0.05702701210975647,
        -0.016734879463911057,
        -0.001557252719067037,
        -0.24701756238937378,
        0.02241542376577854,
        0.035728368908166885,
        -0.11261601746082306,
        -0.01384456641972065,
        -0.08499688655138016,
        -0.2431580275297165,
        0.18782195448875427,
        -0.4750901162624359,
        -0.13377079367637634,
        0.028950892388820648,
        -0.07634047418832779,
        0.05878085270524025,
        0.030723625794053078,
        0.08454049378633499,
        -0.4082096517086029,
        -0.03649424389004707,
        0.013052544556558132,
        0.1416526585817337,
        0.4295275807380676,
        0.02251250669360161,
        -0.013777579180896282,
        -0.14362147450447083,
        -0.31253132224082947,
        -2.191792373196222e-05,
        -0.016293779015541077,
        -0.16678974032402039,
        -0.02290218137204647,
        0.013006753288209438,
        0.15810854732990265,
        0.0560554675757885,
        0.018064279109239578,
        -0.031162437051534653,
        -0.11253325641155243,
        -0.23400020599365234,
        -0.14580877125263214,
        0.16904446482658386,
        0.3247302770614624,
        -0.1899230033159256,
        0.3273948132991791,
        0.15025894343852997,
        -0.006888462696224451,
        -0.30559971928596497,
        0.01680060103535652,
        -0.10385929048061371,
        -0.019126007333397865,
        0.07140453904867172,
        0.199285089969635,
        -0.12928089499473572,
        -0.23702459037303925,
        0.15913540124893188,
        -0.05842910334467888,
        -0.3803699314594269,
        -0.2606973946094513,
        -0.36747443675994873,
        0.21836650371551514,
        0.12861905992031097,
        -0.0829169824719429,
        0.1807936578989029,
        -0.14632977545261383,
        -0.18431685864925385,
        -0.2278790920972824,
        0.03770594671368599,
        -0.3520003855228424,
        -0.029050718992948532,
        -0.11754410713911057,
        -0.01825820468366146,
        -0.3969426155090332,
        -0.17820051312446594,
        -0.007013281341642141,
        -0.08837890625,
        0.005986045114696026,
        0.14812232553958893,
        -0.05494524911046028,
        -0.007891124114394188,
        -0.07484252750873566,
        -0.011592071503400803,
        -0.006784346420317888,
        0.009335909970104694,
        -0.2563718557357788,
        0.18328692018985748,
        0.13835443556308746,
        -0.2536487579345703,
        -0.08248767256736755,
        -0.01547823753207922,
        0.41790300607681274,
        0.005270590074360371,
        0.5340989828109741,
        -0.24673546850681305,
        0.12324050068855286,
        -0.1437607705593109,
        0.025951502844691277,
        -0.011776817962527275,
        -0.06241931766271591,
        -0.03838976472616196,
        0.010373388417065144,
        -0.22271059453487396,
        0.08170057088136673,
        0.14436908066272736,
        0.1748732328414917,
        0.035975247621536255,
        0.12872140109539032,
        -0.2605656683444977,
        -0.006047979928553104,
        0.07568248361349106,
        0.005902629345655441,
        0.06459990888834,
        0.005386371165513992,
        0.4273809790611267,
        0.10106773674488068,
        -0.09255106002092361,
        -0.14590995013713837,
        0.0664045587182045,
        0.12790243327617645,
        -0.08566499501466751,
        0.15220549702644348,
        -0.09858206659555435,
        0.10858539491891861,
        0.14349879324436188,
        -0.30904722213745117,
        -0.07214634865522385,
        -0.065358966588974,
        -0.17368492484092712,
        -0.051397405564785004,
        -0.10263583809137344,
        -0.2863960862159729,
        -0.33647483587265015,
        0.0016322277951985598,
        0.12886294722557068,
        -0.1011909693479538,
        0.058276399970054626,
        0.19017009437084198,
        -0.06929242610931396,
        0.45158472657203674,
        -0.2906161844730377,
        0.24351367354393005,
        0.2256254404783249,
        0.038440439850091934,
        0.15459972620010376,
        -0.07248799502849579,
        -0.003282801480963826,
        -0.11011849343776703,
        0.37876760959625244,
