{
  "input_sequences": [],
  "inputs": [
    {
      "name": "dNN",
      "variables": [
        {
          "name": "hitX1",
          "offset": 0,
          "scale": 1
        },
        {
          "name": "hitX2",
          "offset": 0,
          "scale": 1
        },
        {
          "name": "hitX3",
          "offset": 0,
          "scale": 1
        },
        {
          "name": "hitX4",
          "offset": 0,
          "scale": 1
        },
        {
          "name": "hitX5",
          "offset": 0,
          "scale": 1
        },
        {
          "name": "hitX6",
          "offset": 0,
          "scale": 1
        },
        {
          "name": "hitX7",
          "offset": 0,
          "scale": 1
        },
        {
          "name": "hitX8",
          "offset": 0,
          "scale": 1
        },
        {
          "name": "hitY1",
          "offset": 0,
          "scale": 1
        },
        {
          "name": "hitY2",
          "offset": 0,
          "scale": 1
        },
        {
          "name": "hitY3",
          "offset": 0,
          "scale": 1
        },
        {
          "name": "hitY4",
          "offset": 0,
          "scale": 1
        },
        {
          "name": "hitY5",
          "offset": 0,
          "scale": 1
        },
        {
          "name": "hitY6",
          "offset": 0,
          "scale": 1
        },
        {
          "name": "hitY7",
          "offset": 0,
          "scale": 1
        },
        {
          "name": "hitY8",
          "offset": 0,
          "scale": 1
        },
        {
          "name": "hitZ1",
          "offset": 0,
          "scale": 1
        },
        {
          "name": "hitZ2",
          "offset": 0,
          "scale": 1
        },
        {
          "name": "hitZ3",
          "offset": 0,
          "scale": 1
        },
        {
          "name": "hitZ4",
          "offset": 0,
          "scale": 1
        },
        {
          "name": "hitZ5",
          "offset": 0,
          "scale": 1
        },
        {
          "name": "hitZ6",
          "offset": 0,
          "scale": 1
        },
        {
          "name": "hitZ7",
          "offset": 0,
          "scale": 1
        },
        {
          "name": "hitZ8",
          "offset": 0,
          "scale": 1
        }
      ]
    }
  ],
  "layers": [
    {
      "activation": "rectified",
      "architecture": "dense",
      "bias": [
        0.0,
        0.0,
        0.09028589725494385,
        -0.0009714766056276858,
        0.43254491686820984,
        -0.4081941843032837,
        0.11567432433366776,
        -0.1490233838558197,
        0.0,
        -0.1365043818950653,
        -0.034503690898418427,
        0.23042449355125427,
        -0.2639651298522949,
        0.0,
        -0.0006604818045161664,
        -0.01468267198652029,
        0.0,
        0.0,
        -0.4831063151359558,
        0.032486509531736374,
        0.6322646141052246,
        -0.19412268698215485,
        0.0,
        -0.04532795399427414,
        -0.015771202743053436,
        0.0069291540421545506,
        -0.0024444665759801865,
        0.0,
        0.32386699318885803,
        -0.13443365693092346,
        0.0,
        -0.020574254915118217,
        -0.5553582310676575,
        0.0,
        -0.0020779469050467014,
        0.11620159447193146,
        -0.014719486236572266,
        -0.017697766423225403,
        0.0,
        -0.10996957868337631,
        0.0,
        0.5276765823364258,
        0.053325213491916656,
        0.0,
        -0.03467068448662758,
        0.06498318910598755,
        0.0,
        0.0,
        0.0,
        -0.04199454188346863,
        0.0,
        0.050871118903160095,
        -0.028688892722129822,
        -0.024060562252998352,
        -0.10799568891525269,
        -0.018489189445972443,
        -0.009225128218531609,
        -0.015965981408953667,
        -0.015206882730126381,
        0.0,
        0.0,
        0.040423307567834854,
        -0.1288703978061676,
        -0.12712597846984863
      ],
      "weights": [
        -0.23575982451438904,
        0.014311999082565308,
        -0.2268674373626709,
        0.018163204193115234,
        0.18021446466445923,
        0.21209245920181274,
        0.09235569834709167,
        -0.0739559680223465,
        0.12991178035736084,
        0.04917865991592407,
        0.15478059649467468,
        -0.12751907110214233,
        -0.1648472398519516,
        0.01974344253540039,
        -0.2299019992351532,
        0.08788609504699707,
        0.0025485455989837646,
        -0.013461962342262268,
        0.1751907765865326,
        -0.015890538692474365,
        -0.11092393100261688,
        -0.23369139432907104,
        -0.1644613891839981,
        0.013838857412338257,
        -0.07688221335411072,
        -0.0500759482383728,
        0.1500113606452942,
        -0.19862595200538635,
        -0.1339704394340515,
        0.02258482575416565,
        -0.14467307925224304,
        0.09974318742752075,
        -0.20956434309482574,
        0.05519890785217285,
        0.23478758335113525,
        -0.1389780342578888,
        -0.008833914995193481,
        -0.20306049287319183,
        -0.13298793137073517,
        -0.030847355723381042,
        -0.1941986083984375,
        0.06678420305252075,
        0.018704205751419067,
        0.09751182794570923,
        0.07542383670806885,
        0.06782060861587524,
        0.026127368211746216,
        0.008547663688659668,
        -0.011650929227471352,
        -0.3578784465789795,
        0.18404726684093475,
        0.12900778651237488,
        -0.11533108353614807,
        0.01093993615359068,
        -0.048040151596069336,
        -0.027316784486174583,
        0.049337342381477356,
        0.13796377182006836,
        -0.22293180227279663,
        -0.06641018390655518,
        0.13283677399158478,
        0.040737658739089966,
        -0.09116270393133163,
        -0.009726407937705517,
        -1.1470234394073486,
        -0.4682307541370392,
        1.652393102645874,
        0.48506036400794983,
        0.22980159521102905,
        -0.29047340154647827,
        -0.6481751799583435,
        0.20697341859340668,
        0.05662352219223976,
        -0.15892796218395233,
        0.010849962010979652,
        0.14043591916561127,
        -0.16892698407173157,
        -0.1131494790315628,
        0.1255139261484146,
        -0.027805140241980553,
        -0.10052381455898285,
        -0.08167034387588501,
        0.12440696358680725,
        0.09605611860752106,
        0.1723324954509735,
        -0.08374498784542084,
        -0.1290452629327774,
        0.016312554478645325,
        -1.824368953704834,
        2.39858341217041,
        0.7962847352027893,
        -0.6787353754043579,
        -1.6519023180007935,
        0.708797037601471,
        0.21894270181655884,
        0.7247458100318909,
        -0.9770025610923767,
        0.7738980650901794,
        0.0038489799480885267,
        0.027505919337272644,
        -0.13595867156982422,
        0.17602522671222687,
        0.13888604938983917,
        -0.09246581047773361,
        0.0635690987110138,
        -0.024718618020415306,
        0.2267136573791504,
        0.06211727112531662,
        0.012467475607991219,
        0.10609111934900284,
        0.435245543718338,
        0.07391396164894104,
        0.1100463792681694,
        -1.513421893119812,
        0.4846384823322296,
        -0.4019458591938019,
        0.6831529140472412,
        0.546586275100708,
        -0.2658470869064331,
        0.1538267880678177,
        -1.8884168863296509,
        -0.22161293029785156,
        -0.2300853133201599,
        -0.26720935106277466,
        0.07940559834241867,
        0.005998229142278433,
        0.07356498390436172,
        -0.20311275124549866,
        0.4559501111507416,
        0.013277118094265461,
        -0.17706352472305298,
        0.10840733349323273,
        0.8010327816009521,
        -0.2604103982448578,
        0.42030009627342224,
        -0.037519313395023346,
        -1.1963553428649902,
        0.3736419081687927,
        0.22016626596450806,
        -0.19247952103614807,
        0.796552300453186,
        -0.47024428844451904,
        -0.010654265061020851,
        -0.04634400084614754,
        0.8514995574951172,
        -0.2897018492221832,
        -0.027137860655784607,
        -0.14128942787647247,
        0.06565460562705994,
        -0.33815276622772217,
        0.1608903408050537,
        0.2626440227031708,
        -0.18500852584838867,
        0.1453000009059906,
        0.07592252641916275,
        0.15125226974487305,
        0.34916260838508606,
        0.09530811011791229,
        -0.3767136335372925,
        0.061577871441841125,
        -0.12984755635261536,
        0.6238725781440735,
        -0.5714545249938965,
        -1.0771639347076416,
        -0.07395561784505844,
        0.6015508770942688,
        0.42765599489212036,
        -0.015496212989091873,
        0.5470225214958191,
        -0.13143759965896606,
        -0.03170188143849373,
        0.06573855131864548,
        0.02045932598412037,
        -0.12060599029064178,
        0.0494830422103405,
        0.05655869469046593,
        0.16382502019405365,
        0.0323357954621315,
        -0.1521977186203003,
        -0.07554014027118683,
        0.04443471133708954,
        -0.1754826009273529,
        -0.014526392333209515,
        0.3661147952079773,
        0.7415630221366882,
        0.3669852018356323,
        0.13304372131824493,
        -0.5019813776016235,
        1.7038569450378418,
        -0.28225523233413696,
        0.8010565638542175,
        -1.6890740394592285,
        -0.11158204078674316,
        0.24069705605506897,
        -0.01875874400138855,
        0.05293917655944824,
        -0.09486463665962219,
        -0.09758313000202179,
        0.2372463345527649,
        0.25868478417396545,
        0.05861383676528931,
        -0.2476050853729248,
        -0.1384148895740509,
        0.0098799467086792,
        0.1938871443271637,
        -0.2429461032152176,
        -0.2293672263622284,
        -0.15228885412216187,
        0.12969869375228882,
        0.14016202092170715,
        -0.017591461539268494,
        0.24311086535453796,
        0.044802188873291016,
        0.10415413975715637,
        0.09736603498458862,
        -0.2590318024158478,
        -1.8331493139266968,
        0.21268707513809204,
        0.2682507634162903,
        -0.021301530301570892,
        0.032313574105501175,
        0.002680961275473237,
        -0.07860732823610306,
        -0.010041595436632633,
        0.19088999927043915,
        0.8878802061080933,
        -0.34723514318466187,
        0.014693579636514187,
        -0.07574133574962616,
        -0.1528933048248291,
        0.05091313645243645,
        0.1093006432056427,
        0.4105510115623474,
        1.2371838092803955,
        -0.5082852840423584,
        -0.23415862023830414,
        -0.7207224369049072,
        -0.6240465044975281,
        -0.06925700604915619,
        0.6808785200119019,
        0.1747778207063675,
        -0.3546838164329529,
        -1.621062994003296,
        -0.2503206729888916,
        -0.5315701365470886,
        -0.423831045627594,
        -0.18479777872562408,
        0.10686124116182327,
        0.02565094642341137,
        0.0016702576540410519,
        0.37992382049560547,
        0.015384641475975513,
        -0.3409698009490967,
        -0.10601983219385147,
        0.07181838154792786,
        0.015553283505141735,
        0.15985029935836792,
        -0.30884575843811035,
        0.03883694112300873,
        0.0249144546687603,
        0.01979794353246689,
        -0.0379960834980011,
        0.09635233879089355,
        -0.2777680456638336,
        -1.5119976997375488,
        -0.49506574869155884,
        0.3941724896430969,
        0.042902037501335144,
        0.03542555868625641,
        -0.108124278485775,
        0.009872475638985634,
        -0.002007561968639493,
        -0.15127217769622803,
        0.941781759262085,
        -0.8290295600891113,
        0.2139926552772522,
        -0.6626096367835999,
        -0.225131094455719,
        0.7045528888702393,
        0.0882674977183342,
        0.713337242603302,
        -1.1979948282241821,
        0.16710452735424042,
        -0.09120070934295654,
        0.28314462304115295,
        0.4918135106563568,
        -0.42712831497192383,
        -0.32022976875305176,
        1.7736023664474487,
        -0.11645136773586273,
        0.2803220748901367,
        0.28181496262550354,
        -0.14983589947223663,
        -0.010498748160898685,
        -0.062194548547267914,
        0.14385487139225006,
        0.45049789547920227,
        -0.08836261928081512,
        0.7665824890136719,
        0.08227896690368652,
        -1.0242395401000977,
        0.012818638235330582,
        0.48512354493141174,
        0.011595233343541622,
        0.4165126085281372,
        -0.14214257895946503,
        -0.8105811476707458,
        0.2775651812553406,
        -0.35901036858558655,
        0.23252689838409424,
        0.21555571258068085,
        0.12767688930034637,
        0.23663493990898132,
        0.2449154555797577,
        0.06170666217803955,
        -0.06377765536308289,
        -0.017613694071769714,
        -0.14029523730278015,
        0.053217142820358276,
        -0.25642916560173035,
        0.10684704780578613,
        -0.23731544613838196,
        -0.23456233739852905,
        -0.01319769024848938,
        -0.08514295518398285,
        -0.12263995409011841,
        0.16211840510368347,
        -0.17509540915489197,
        -0.24224542081356049,
        0.17554453015327454,
        -0.03492021560668945,
        0.18710771203041077,
        0.048061758279800415,
        0.21272820234298706,
        -0.09052813053131104,
        0.045979201793670654,
        -0.9612796306610107,
        -0.14785809814929962,
        0.1373014599084854,
        -0.013124748133122921,
        0.06748032569885254,
        0.007414518855512142,
        -0.05577422305941582,
        -0.007894791662693024,
        0.12033338099718094,
        -0.12149927765130997,
        -0.008006150834262371,
        -0.010482932440936565,
        -0.025410223752260208,
        0.024100784212350845,
        0.010059467516839504,
        -0.039465222507715225,
        -2.714322328567505,
        2.12502384185791,
        1.215889811515808,
        0.21666131913661957,
        0.16912128031253815,
        -0.5568095445632935,
        -0.43739303946495056,
        0.005995433311909437,
        -0.0244525745511055,
        -0.11330097168684006,
        0.03171257674694061,
        0.11830773949623108,
        -0.03508514165878296,
        0.09311855584383011,
        0.12963996827602386,
        -0.0298822820186615,
        -0.11566601693630219,
        -0.04396944120526314,
        -0.15479758381843567,
        0.08460412919521332,
        0.182906374335289,
        -0.1834188997745514,
        0.03334415704011917,
        -0.1671925187110901,
        -0.07677872478961945,
        -0.19783291220664978,
        0.12229155749082565,
        -0.20987485349178314,
        0.2049664855003357,
        -0.014288126491010189,
        0.07846150547266006,
        0.09354102611541748,
        -0.11288988590240479,
        0.19353803992271423,
        0.1868380904197693,
        -0.10073080658912659,
        0.1530517339706421,
        -0.2136388123035431,
        -0.1257418841123581,
        -0.14892727136611938,
        -0.1206081360578537,
        0.00804215669631958,
        -0.20259171724319458,
        0.18759360909461975,
        -0.20011702179908752,
        -0.1954246163368225,
        0.1497078835964203,
        -0.0692567229270935,
        -0.2547539472579956,
        0.059825628995895386,
        -7.346272468566895e-05,
        0.24205878376960754,
        0.11150366067886353,
        -0.19039109349250793,
        -0.1659436821937561,
        -0.252992182970047,
        0.051215410232543945,
        0.08425930142402649,
        -0.13000079989433289,
        -0.04529513418674469,
        0.23097819089889526,
        0.11531981825828552,
        -0.16918623447418213,
        0.13546767830848694,
        -0.1756565272808075,
        -0.11407025158405304,
        -0.1605733036994934,
        -0.2132367044687271,
        0.041322141885757446,
        -0.004047125577926636,
        -0.14380642771720886,
        -0.2515117824077606,
        -0.06022009253501892,
        -0.0283203125,
        0.051486194133758545,
        0.18798774480819702,
        0.04130563139915466,
        -0.2591871917247772,
        0.10449013113975525,
        -0.25561344623565674,
        -2.9530720710754395,
        0.1439124196767807,
        0.5650064945220947,
        -0.12659387290477753,
        -0.15061445534229279,
        -0.06866557151079178,
        -0.2557959258556366,
        0.1378462314605713,
        0.3494531512260437,
        0.05828690156340599,
        -0.062788225710392,
        0.02193390764296055,
        0.05956915393471718,
        0.02979370206594467,
        0.39717772603034973,
        -0.011903984472155571,
        1.0232477188110352,
        -0.9974246025085449,
        -0.04944179952144623,
        -0.217494398355484,
        0.028215192258358,
        0.8753833770751953,
        -0.5400100946426392,
        0.3444770574569702,
        -0.48290279507637024,
        -0.3170851171016693,
        -0.1282011866569519,
        0.010416601784527302,
        -0.05791553482413292,
        0.04328932240605354,
        0.03470832481980324,
        0.12771275639533997,
        -0.10649080574512482,
        -0.2078137993812561,
        0.04862212389707565,
        -0.23481136560440063,
        0.12869906425476074,
        0.1884959489107132,
        -0.04282662644982338,
        -0.21191085875034332,
        0.8036198019981384,
        -1.9028270244598389,
        0.6238111853599548,
        1.692427635192871,
        -0.03680957853794098,
        -1.013720154762268,
        -0.17440000176429749,
        -0.1334332376718521,
        -0.14935199916362762,
        -0.16490209102630615,
        0.17359672486782074,
        0.056919246912002563,
        -0.1669580340385437,
        -0.0030180523172020912,
        0.006974410731345415,
        0.0029500480741262436,
        -0.05493348091840744,
        -0.04336237534880638,
        0.21779721975326538,
        -0.013917687349021435,
        0.031132450327277184,
        0.004223392345011234,
        0.04086717590689659,
        -0.03125419095158577,
        0.30982285737991333,
        0.6305385231971741,
        -1.6281932592391968,
        0.4061826169490814,
        0.5446498394012451,
        -0.6307894587516785,
        0.46020063757896423,
        0.03172597289085388,
        -0.3785431385040283,
        -0.1225195974111557,
        -0.010557012632489204,
        -0.007321509066969156,
        -0.04412749037146568,
        0.013074242509901524,
        0.030622538179159164,
        -0.004375529941171408,
        -0.03132190555334091,
        -0.010564417578279972,
        0.15806987881660461,
        -0.0262893196195364,
        0.03941423445940018,
        0.01959143579006195,
        0.14420759677886963,
        -0.015520188957452774,
        -0.6571471095085144,
        0.5801089406013489,
        -0.21908769011497498,
        1.2800356149673462,
        -1.390336513519287,
        0.265689492225647,
        -0.008235446177423,
        0.18031390011310577,
        0.23531103134155273,
        0.15302973985671997,
        0.19691947102546692,
        -0.08171214163303375,
        -0.17314863204956055,
        0.2501218020915985,
        -0.20517262816429138,
        -0.10648459196090698,
        -0.10642184317111969,
        0.06675362586975098,
        0.0862199068069458,
        -0.22130738198757172,
        -0.2506023645401001,
        -0.08222836256027222,
        0.06805232167243958,
        0.04023951292037964,
        -0.022507622838020325,
        0.10138821601867676,
        0.22884303331375122,
        -0.02844443917274475,
        0.0747140645980835,
        0.2206159234046936,
        -0.03043772280216217,
        0.21478256583213806,
        0.13640889525413513,
        0.21161501109600067,
        0.28878867626190186,
        0.12680186331272125,
        -0.26667535305023193,
        0.0683911070227623,
        -0.08706966787576675,
        0.026361888274550438,
        0.028827477246522903,
        -0.034098513424396515,
        0.19638703763484955,
        0.24976184964179993,
        -0.07865795493125916,
        -0.0031279532704502344,
        -0.01431299652904272,
        -0.1510053426027298,
        -1.2204198837280273,
        -1.0598413944244385,
        -1.4256296157836914,
        0.37665021419525146,
        0.09367688000202179,
        -0.356200635433197,
        1.2813974618911743,
        -0.24903742969036102,
        0.43835073709487915,
        -1.2328869104385376,
        0.1258925497531891,
        -0.18840213119983673,
        0.015700306743383408,
        0.028035981580615044,
        0.06033216416835785,
        0.009265562519431114,
        0.03205692768096924,
        -0.25226497650146484,
        0.021579496562480927,
        -0.4686741232872009,
        0.2830016314983368,
        -0.18496596813201904,
        0.3378139138221741,
        0.01810932531952858,
        -0.08587434887886047,
        1.4845266342163086,
        0.603874683380127,
        -2.2756588459014893,
        -0.6893178820610046,
        0.7634658813476562,
        0.16114695370197296,
        0.009778058156371117,
        -0.33785995841026306,
        -0.25513210892677307,
        -0.12963926792144775,
        0.1169670820236206,
        0.2676655650138855,
        0.0077673387713730335,
        -0.14714467525482178,
        -0.046712517738342285,
        0.251442551612854,
        0.09707988053560257,
        -0.29900985956192017,
        0.16086596250534058,
        -0.09701064974069595,
        0.2830801010131836,
        -0.1768231987953186,
        0.12637276947498322,
        -0.9187983870506287,
        1.4188324213027954,
        -0.1473418027162552,
        -0.3803468942642212,
        -0.08209574967622757,
        -0.5886796116828918,
        0.9766709804534912,
        -0.40094316005706787,
        -0.867591381072998,
        0.07374504208564758,
        -0.05101725459098816,
        0.01223919540643692,
        -0.0783870741724968,
        0.019359814003109932,
        0.1082736924290657,
        -0.1354873925447464,
        0.10839685797691345,
        0.04850595071911812,
        -0.06217215210199356,
        -0.09147211909294128,
        0.3457219898700714,
        0.04674607887864113,
        0.01947639323771,
        0.0294120404869318,
        -0.22029279172420502,
        0.6679301261901855,
        -1.2123934030532837,
        0.925165057182312,
        0.7065762877464294,
        -0.05398257449269295,
        -0.7717341184616089,
        0.15368305146694183,
        -0.2012011855840683,
        0.12811237573623657,
        0.08084791898727417,
        0.18886902928352356,
        -0.027302056550979614,
        -0.11171327531337738,
        0.03710615634918213,
        0.19915634393692017,
        0.16785883903503418,
        -0.12533454596996307,
        -0.2083902657032013,
        -0.06350460648536682,
        0.09544160962104797,
        -0.14861294627189636,
        -0.19575978815555573,
        -0.05125710368156433,
        -0.10873636603355408,
        -0.23103678226470947,
        0.01213112473487854,
        -0.05492411553859711,
        -0.06441739201545715,
        0.04216599464416504,
        0.053037166595458984,
        -0.07732740044593811,
        0.847368597984314,
        -0.4315275549888611,
        0.4238761365413666,
        0.07039093226194382,
        0.07657700777053833,
        -0.02142566815018654,
        -0.16549378633499146,
        0.25941523909568787,
        0.07301601022481918,
        0.23866668343544006,
        -0.1189604252576828,
        -0.6143080592155457,
        0.023482562974095345,
        0.0573410838842392,
        -0.12112393230199814,
        0.5118626356124878,
        -0.2982950210571289,
        -0.3060207962989807,
        -0.9652643799781799,
        0.8844314813613892,
        -0.3295823633670807,
        0.21991534531116486,
        -0.19135873019695282,
        1.022424578666687,
        -0.15101546049118042,
        0.353935182094574,
        -0.03990020975470543,
        -0.020437467843294144,
        0.05958598107099533,
        -0.06928879767656326,
        -0.0995137095451355,
        0.05975941941142082,
        -0.5132319927215576,
        0.2967262268066406,
        0.11468163132667542,
        -0.009287902154028416,
        -0.05013985559344292,
        0.04171491041779518,
        0.1675298660993576,
        0.08106198906898499,
        -0.727787971496582,
        0.5848278403282166,
        0.7667945623397827,
        0.5976072549819946,
        -0.41951391100883484,
        -0.9128206968307495,
        0.21720054745674133,
        -0.28205278515815735,
        0.14199548959732056,
        -0.22356697916984558,
        0.24547258019447327,
        -0.02680046856403351,
        -0.15290698409080505,
        0.0632387101650238,
        0.09830695390701294,
        0.07471436262130737,
        -0.19295762479305267,
        0.18902841210365295,
        -0.2443600445985794,
        0.16917359828948975,
        -0.1852930337190628,
        -0.0623345822095871,
        -0.22606036067008972,
        0.19689100980758667,
        -0.028791144490242004,
        0.24586889147758484,
        -0.0418107807636261,
        0.08530455827713013,
        0.006940513849258423,
        0.2275390923023224,
        0.17629382014274597,
        -0.016382962465286255,
        0.2331690639257431,
        -0.20314639806747437,
        0.18024639785289764,
        -0.044871557503938675,
        0.058961447328329086,
        0.23393844068050385,
        0.1952066421508789,
        0.04216032847762108,
        0.18032705783843994,
        0.023795517161488533,
        -0.17431898415088654,
        -0.19699127972126007,
        -0.21269749104976654,
        -0.26983779668807983,
        0.16677193343639374,
        0.13595153391361237,
        0.11021918803453445,
        0.12352219223976135,
        0.03743896633386612,
        0.01023946050554514,
        0.002397678093984723,
        -0.22428910434246063,
        -0.2193657010793686,
        -0.22923849523067474,
        -0.5677322745323181,
        0.4210587739944458,
        -0.22426527738571167,
        0.2474227249622345,
        0.07637833803892136,
        -0.047700174152851105,
        0.13982561230659485,
        0.04583868011832237,
        0.18662625551223755,
        0.20691415667533875,
        0.36069563031196594,
        -0.014271494932472706,
        -0.012009193189442158,
        -0.06833486258983612,
        0.42335179448127747,
        -0.020011883229017258,
        -0.6620639562606812,
        0.7927952408790588,
        1.2537413835525513,
        -0.5414721369743347,
        0.06480535864830017,
        -0.313121497631073,
        -0.3549826443195343,
        0.008699743077158928,
        -0.10282200574874878,
        -0.18799994885921478,
        -0.025891482830047607,
        0.16087126731872559,
        -0.24894562363624573,
        0.05099812150001526,
        0.2355388104915619,
        0.13369721174240112,
        -0.12141172587871552,
        -0.0066460371017456055,
        -0.22418755292892456,
        0.055016010999679565,
        -0.055813923478126526,
        0.08106860518455505,
        -0.2399892956018448,
        0.04425796866416931,
        0.11901405453681946,
        -0.03084026277065277,
        0.11694324016571045,
        -0.07912077009677887,
        -0.09897901117801666,
        -0.0423194020986557,
        0.26101377606391907,
        -0.10645700991153717,
        -0.0543111152946949,
        -0.012074075639247894,
        0.1582760214805603,
        0.25700345635414124,
        0.1599043756723404,
        -0.023033518344163895,
        0.07067304104566574,
        0.11653205007314682,
        0.07727611809968948,
        0.10123860836029053,
        -0.2246130108833313,
        -0.03194773942232132,
        0.23004436492919922,
        0.059566859155893326,
        -0.2516133785247803,
        -0.11607346683740616,
        0.11816991865634918,
        -0.23729681968688965,
        -0.1613757461309433,
        -0.2643129527568817,
        0.004386526066809893,
        0.16910582780838013,
        0.2060544490814209,
        -0.14531627297401428,
        -1.7114406824111938,
        0.4928240478038788,
        0.3679574728012085,
        0.21255625784397125,
        -0.17341485619544983,
        0.0272119902074337,
        -0.1848381757736206,
        -0.09917660057544708,
        0.027529817074537277,
        -0.2925642132759094,
        0.1001911386847496,
        0.2712760865688324,
        0.48087573051452637,
        -0.05225292965769768,
        0.16102509200572968,
        0.05615389719605446,
        0.6226423382759094,
        -0.28076210618019104,
        0.39817729592323303,
        -0.5042999982833862,
        -0.3576921820640564,
        -0.419295072555542,
        0.5099490880966187,
        -1.207236647605896,
        0.03577480465173721,
        -0.04305698350071907,
        -0.023428900167346,
        0.10092250257730484,
        0.2158953845500946,
        0.0886172354221344,
        0.24300596117973328,
        -0.20051158964633942,
        0.14497308433055878,
        -0.10783521831035614,
        0.007185652852058411,
        -0.018230527639389038,
        -0.15641774237155914,
        0.04815301671624184,
        -0.048063136637210846,
        -0.06409907341003418,
        0.3213501572608948,
        0.10676739364862442,
        -0.1297127604484558,
        -0.11653296649456024,
        -0.2384999841451645,
        0.0996105745434761,
        -0.14478738605976105,
        0.16292867064476013,
        -0.04484634846448898,
        0.2648487687110901,
        -0.21391192078590393,
        0.24940332770347595,
        -0.16476714611053467,
        0.13455331325531006,
        -0.22674107551574707,
        -0.05253337696194649,
        0.24101175367832184,
        0.02472030557692051,
        0.23888978362083435,
        -0.1340394765138626,
        -0.07940545678138733,
        -0.07466742396354675,
        -0.22627870738506317,
        0.02148306928575039,
        -0.18423044681549072,
        0.166788250207901,
        0.23963527381420135,
        0.016733478754758835,
        0.22559286653995514,
        -0.050467804074287415,
        0.21404357254505157,
        -0.2591927647590637,
        -0.0031738877296447754,
        0.0684322714805603,
        0.1615387499332428,
        -0.08214020729064941,
        -0.045517951250076294,
        0.1564752459526062,
        -0.1105465441942215,
        0.0709007978439331,
        0.03146767616271973,
        0.08084556460380554,
        -0.2450127899646759,
        -0.17105799913406372,
        0.08892253041267395,
        -0.22307312488555908,
        -0.06937873363494873,
        0.17223572731018066,
        -0.20801381766796112,
        -0.1505078673362732,
        -0.19854457676410675,
        0.2501949369907379,
        -0.05776089429855347,
        0.23072850704193115,
        0.11114126443862915,
        -0.022136136889457703,
        -1.7118144035339355,
        0.8878622055053711,
        0.1418895274400711,
        -0.46912768483161926,
        -0.06569522619247437,
        0.05941927060484886,
        -0.022781655192375183,
        0.013932946138083935,
        0.04887925088405609,
        0.4508344531059265,
        0.15064257383346558,
        -0.1932409256696701,
        0.011340856552124023,
        0.010210218839347363,
        -0.2020498663187027,
        0.16099801659584045,
        2.1687021255493164,
        -0.09796541184186935,
        -0.2995762526988983,
        -2.2672016620635986,
        -0.6214101314544678,
        0.6830358505249023,
        0.358232706785202,
        0.41637909412384033,
        0.02980664372444153,
        -0.02358749508857727,
        0.126611590385437,
        0.13151752948760986,
        0.18561887741088867,
        -0.10613547265529633,
        -0.028866156935691833,
        0.005769610404968262,
        -0.0923757404088974,
        -0.20877444744110107,
        -0.12676604092121124,
        -0.18963277339935303,
        0.12021568417549133,
        -0.02495841681957245,
        -0.0766366720199585,
        0.15316277742385864,
        -0.10291770100593567,
        0.2014930248260498,
        0.1978694200515747,
        -0.22574783861637115,
        0.1195371150970459,
        -0.15527448058128357,
        0.1491180658340454,
        0.2485993206501007,
        0.5600467324256897,
        -0.023787936195731163,
        0.046979863196611404,
        0.32399752736091614,
        0.17498190701007843,
        0.313800573348999,
        0.40735650062561035,
        -0.10277752578258514,
        -0.03763681277632713,
        -0.2490244358778,
        -1.0008498430252075,
        0.3556170165538788,
        0.26272425055503845,
        0.45230966806411743,
        -0.3816118538379669,
        -0.06487686187028885,
        -0.5072937607765198,
        0.7786847352981567,
        -0.3244763910770416,
        -0.17129908502101898,
        0.3394545316696167,
        0.21684804558753967,
        0.48634958267211914,
        -0.5865566730499268,
        -1.0186997652053833,
        -0.05718909204006195,
        0.33798813819885254,
        0.07195428758859634,
        0.025439409539103508,
        0.24676425755023956,
        -0.1504938006401062,
        -0.06485889852046967,
        -0.019934896379709244,
        0.04597114399075508,
        -0.5518695116043091,
        1.2648112773895264,
        -0.24455957114696503,
        0.14876846969127655,
        -0.2763094902038574,
        0.015737585723400116,
        0.7306283712387085,
        -0.12393128126859665,
        0.5501180291175842,
        -0.9376558065414429,
        -0.09861890971660614,
        0.49260544776916504,
        -0.5684838891029358,
        0.15203814208507538,
        -0.021654531359672546,
        0.08632740378379822,
        0.06197050213813782,
        -0.01904456317424774,
        -0.15674102306365967,
        -0.05245845019817352,
        -0.025289863348007202,
        -0.06038220226764679,
        0.21298518776893616,
        -0.12195029854774475,
        -0.1038888692855835,
        -0.004117041826248169,
        0.12810352444648743,
        -0.005967885255813599,
        -0.23603902757167816,
        0.054099053144454956,
        0.17066341638565063,
        -0.24110566079616547,
        0.0778554379940033,
        0.20348769426345825,
        -0.23344069719314575,
        -0.019292712211608887,
        -0.05424541234970093,
        0.01926875114440918,
        0.7045504450798035,
        -0.5086798667907715,
        0.1253456324338913,
        0.058837421238422394,
        -0.10744091123342514,
        0.03214697912335396,
        0.02791152335703373,
        0.003655102103948593,
        0.08235909044742584,
        0.19177046418190002,
        -0.24140484631061554,
        -0.17044632136821747,
        0.1611412763595581,
        0.12466240674257278,
        -0.02922303043305874,
        0.026470670476555824,
        -0.36630743741989136,
        0.25403866171836853,
        -1.2658753395080566,
        1.6683120727539062,
        -0.14852885901927948,
        1.416966199874878,
        -0.4841863512992859,
        -1.468453288078308,
        -0.3049248158931732,
        0.12638767063617706,
        0.256452351808548,
        0.016286801546812057,
        0.0150913679972291,
        -0.008789952844381332,
        -0.08446680009365082,
        -0.028700869530439377,
        0.22258180379867554,
        0.06754691898822784,
        0.20970651507377625,
        -0.6771460771560669,
        0.2109602391719818,
        -0.22139617800712585,
        0.19372911751270294,
        -0.12460765242576599,
        1.6238791942596436,
        0.6577349305152893,
        -0.7782991528511047,
        -1.089010238647461,
        0.33456671237945557,
        0.23839250206947327,
        -0.8929485082626343,
        0.20503543317317963,
        -0.14604312181472778,
        -0.0475369393825531,
        0.06592333316802979,
        0.09652677178382874,
        0.2502056062221527,
        0.25059887766838074,
        0.1792777180671692,
        -0.015682905912399292,
        -0.08631820976734161,
        0.20506441593170166,
        -0.2437046766281128,
        -0.2509475648403168,
        -0.2110617607831955,
        -0.126852884888649,
        -0.05605180561542511,
        0.09345132112503052,
        -0.029587313532829285,
        0.18118008971214294,
        -0.07098791003227234,
        -0.25199466943740845,
        -0.1998102217912674,
        -0.23393568396568298,
        0.08384716510772705,
        0.03667798638343811,
        -0.000911712646484375,
        0.15088200569152832,
        -0.24327723681926727,
        -0.151657834649086,
        0.2326480746269226,
        -0.20913253724575043,
        -0.06837195158004761,
        -0.240074023604393,
        -0.24483945965766907,
        -0.2592516243457794,
        0.21015134453773499,
        -0.07447835803031921,
        -0.18940672278404236,
        0.013934969902038574,
        -0.05225430428981781,
        -0.042830824851989746,
        -0.25526556372642517,
        -0.23955395817756653,
        0.25006601214408875,
        -0.2566721439361572,
        -0.20418912172317505,
        0.09344840049743652,
        0.21327802538871765,
        0.25037655234336853,
        0.007457852363586426,
        0.24617734551429749,
        0.030490636825561523,
        0.10689455270767212,
        -0.2251465916633606,
        -0.23782861232757568,
        0.15462884306907654,
        0.10784834623336792,
        0.09761711955070496,
        -0.10147717595100403,
        -0.12723039090633392,
        -0.21330276131629944,
        -0.0845458060503006,
        -0.12209367752075195,
        -0.22195781767368317,
        -0.10261252522468567,
        0.21578088402748108,
        -0.021166518330574036,
        0.12586793303489685,
        -0.04702314734458923,
        -0.005683571100234985,
        -0.03667891025543213,
        0.15381211042404175,
        -0.06722433865070343,
        1.257688045501709,
        -0.42539307475090027,
        -0.18655331432819366,
        -0.34279200434684753,
        -0.12576574087142944,
        -0.010524829849600792,
        0.20964281260967255,
        -0.03746383637189865,
        0.08600956946611404,
        -0.48622509837150574,
        0.10584831982851028,
        -0.13907389342784882,
        -0.017400478944182396,
        0.025894805788993835,
        0.04785018786787987,
        0.20398837327957153,
        1.278617262840271,
        0.28702789545059204,
        0.4680514335632324,
        -1.3307127952575684,
        -0.3959898352622986,
        -1.6967297792434692,
        -0.41760700941085815,
        1.5441687107086182,
        -0.18305367231369019,
        0.12842321395874023,
        -0.21880653500556946,
        0.22720319032669067,
        0.23424497246742249,
        -0.09018915891647339,
        -0.13633126020431519,
        0.20289209485054016,
        0.2540198266506195,
        0.05157828330993652,
        -0.1558597981929779,
        -0.25407829880714417,
        -0.0836944580078125,
        -0.2328978329896927,
        0.09434711933135986,
        0.014251291751861572,
        0.21151509881019592,
        -0.20341280102729797,
        -0.11337006092071533,
        -0.15407875180244446,
        0.18200957775115967,
        0.21370074152946472,
        0.004242807626724243,
        0.2462047040462494,
        0.22515909373760223,
        0.13589470088481903,
        -0.11242599785327911,
        0.039539191871881485,
        0.14838838577270508,
        -0.04726174846291542,
        -0.004796010907739401,
        -0.03349725529551506,
        0.16890662908554077,
        0.0859781876206398,
        -0.07242455333471298,
        0.027568258345127106,
        0.11382850259542465,
        -0.025245582684874535,
        -0.15417121350765228,
        0.007632124703377485,
        1.2912261486053467,
        -1.8562235832214355,
        0.8089657425880432,
        0.843861997127533,
        -0.6391977071762085,
        -0.35808417201042175,
        0.16125395894050598,
        -0.0210972148925066,
        0.8403420448303223,
        -2.1017134189605713,
        0.3458455204963684,
        0.09726744145154953,
        0.11654523015022278,
        -0.08151955157518387,
        -0.1234273687005043,
        0.15349164605140686,
        -0.12191203981637955,
        -0.3951393961906433,
        -0.031362179666757584,
        0.013133187778294086,
        -0.02653585933148861,
        -0.06781060993671417,
        0.0499655045568943,
        0.3109148442745209,
        -0.9807282090187073,
        -0.4141245484352112,
        -0.6296482086181641,
        -1.5980645418167114,
        0.5795156955718994,
        1.0483611822128296,
        2.097346305847168,
        -0.28189724683761597,
        0.1096619963645935,
        -0.06120845675468445,
        -0.07258286327123642,
        -0.004485687240958214,
        -0.10619547218084335,
        0.012415132485330105,
        0.07075318694114685,
        0.004295450635254383,
        0.2618994116783142,
        -0.16562053561210632,
        -0.11073105037212372,
        0.00934603437781334,
        0.08156313002109528,
        -0.007032766472548246,
        0.039670538157224655,
        0.004766648635268211,
        -2.317530393600464,
        2.365222930908203,
        0.4853922426700592,
        0.1106310784816742,
        -0.24035511910915375,
        0.12646958231925964,
        -0.5108281970024109,
        -0.027424175292253494,
        -1.5424071550369263,
        0.2259354442358017,
        0.12512505054473877,
        -0.16570839285850525,
        0.10630422830581665,
        0.0856313705444336,
        -0.33831435441970825,
        0.20814886689186096,
        -0.04777893051505089,
        -0.11881037056446075,
        0.6316534280776978,
        0.2825831472873688,
        -0.45673996210098267,
        0.04195788502693176,
        0.10410306602716446,
        0.09673483669757843,
        -1.0506446361541748,
        0.26763057708740234,
        1.0529756546020508,
        0.48838984966278076,
        0.3192903399467468,
        -0.2676694393157959,
        -0.4599072337150574,
        -0.2662390172481537,
        -1.4705801010131836,
        2.8001461029052734,
        0.12341927736997604,
        -0.2603342831134796,
        -0.024081017822027206,
        -0.07999628782272339,
        -0.02257026731967926,
        -0.03991781920194626,
        0.06869243085384369,
        0.04062012583017349,
        -0.08669508248567581,
        -0.07782620936632156,
        0.05032484233379364,
        0.06930161267518997,
        -0.18439435958862305,
        0.21008870005607605,
        2.150501251220703,
        -1.641605257987976,
        -0.7655304074287415,
        0.28118282556533813,
        -0.15212687849998474,
        -0.8934710025787354,
        0.09606130421161652,
        0.9208049178123474,
        -0.2387533187866211,
        0.08466321974992752,
        0.03925272449851036,
        -0.19534973800182343,
        -0.2581901550292969,
        -0.2222169190645218,
        0.13431686162948608,
        0.02252827025949955,
        0.02873072400689125,
        0.061038143932819366,
        -0.19006137549877167,
        -0.1752830147743225,
        0.24337811768054962,
        0.03618979826569557,
        -0.2703837752342224,
        0.07886531203985214,
        0.0693233534693718,
        -0.11894077062606812,
        -0.12867063283920288,
        0.14902447164058685,
        -0.1239599958062172,
        -0.11433738470077515,
        -0.09181039035320282,
        0.011727821081876755,
        -1.4537320137023926,
        -0.137337327003479,
        -0.28373798727989197,
        0.06963170319795609,
        0.22057874500751495,
        -0.04863900691270828,
        -0.013286431320011616,
        -0.017000360414385796,
        -0.13196240365505219,
        -0.07677828520536423,
        0.16904138028621674,
        0.10359665006399155,
        -0.006436812691390514,
        -0.06567756831645966,
        0.014808074571192265,
        -0.03854072466492653,
        -2.0596046447753906,
        1.664480209350586,
        0.691127598285675,
        -0.22108784317970276,
        0.7265936732292175,
        0.534308910369873,
        -1.2014334201812744,
        -0.05370226129889488,
        0.2181013822555542,
        -0.1420063078403473,
        -0.05273956432938576,
        0.09532531350851059,
        -0.15547776222229004,
        -0.20309749245643616,
        -0.07628738880157471,
        0.21978068351745605,
        -0.15509861707687378,
        0.1588415652513504,
        -0.10267937183380127,
        0.2379007786512375,
        0.0230836383998394,
        -0.24033646285533905,
        -0.1626134067773819,
        0.08704037964344025,
        -0.061899177730083466,
        -0.0007732684025540948,
        -0.12227058410644531,
        0.17377117276191711,
        0.08306834846735,
        -0.08188009262084961,
        0.22193759679794312,
        0.028300844132900238,
        0.193109393119812,
        0.09679123759269714,
        -0.22231192886829376,
        0.19886824488639832,
        0.21296918392181396,
        -0.17664170265197754,
        -0.15956595540046692,
        0.23074400424957275,
        0.10890966653823853,
        0.05384385585784912,
        -0.08039656281471252,
        -0.22686058282852173,
        -0.055823951959609985,
        -0.09731180965900421,
        -0.03800152242183685,
        -0.12473234534263611,
        0.035835593938827515,
        0.07733798027038574,
        -0.008027404546737671,
        -0.10666987299919128,
        -0.15897883474826813,
        -0.118856281042099,
        -0.058615654706954956,
        -0.14205624163150787,
        0.2378019094467163,
        0.2221483290195465,
        -0.20460927486419678,
        0.10224777460098267,
        -0.11975450813770294,
        0.09816035628318787,
        -0.003310859203338623,
        -0.059740036725997925,
        -0.12921757996082306,
        0.24225738644599915,
        0.08726745843887329,
        -0.13956329226493835,
        -0.06936609745025635,
        -0.2590460479259491,
        0.013735771179199219,
        -0.2579551041126251,
        0.2544742524623871,
        -0.1989784985780716,
        -0.1551561951637268,
        0.010219663381576538,
        -0.15096226334571838,
        0.06867837905883789,
        0.25320103764533997,
        0.22208425402641296,
        -0.45760753750801086,
        -0.3734613358974457,
        0.36632511019706726,
        0.23220649361610413,
        -0.03411669284105301,
        0.023912081494927406,
        -0.11575756967067719,
        -0.244908407330513,
        -0.20556499063968658,
        0.14166808128356934,
        0.570682942867279,
        0.027192378416657448,
        -0.2019127905368805,
        0.0016717780381441116,
        -0.07277287542819977,
        0.01619638316333294,
        0.7482123374938965,
        0.2045808583498001,
        -0.013100985437631607,
        -1.2344528436660767,
        -0.20052234828472137,
        0.891086757183075,
        -0.06156143918633461,
        -0.09373311698436737,
        -0.05873719975352287,
        -0.009863769635558128,
        -0.07487602531909943,
        -0.05922485142946243,
        -0.02511041983962059,
        -0.011052791960537434,
        0.060437727719545364,
        -0.010060780681669712,
        0.05769793689250946,
        -0.00044664242886938155,
        0.14158686995506287,
        -0.033120375126600266,
        0.008975092321634293,
        0.06730318069458008,
        0.020184174180030823,
        -0.012974651530385017,
        -0.8374428153038025,
        0.35759344696998596,
        1.6102290153503418,
        -0.3084357976913452,
        -0.15880468487739563,
        -1.199913740158081,
        0.717832088470459,
        -0.22496183216571808,
        -0.5377159714698792,
        -0.08282659947872162,
        -0.1830892562866211,
        0.12794938683509827,
        0.3631928563117981,
        -0.283072829246521,
        0.0891893282532692,
        -0.08368378132581711,
        0.25117993354797363,
        0.032784752547740936,
        0.06403344124555588,
        -0.07192671298980713,
        -0.17176330089569092,
        0.24418604373931885,
        -0.21442486345767975,
        0.27254214882850647,
        -2.447118043899536,
        -0.08429685980081558,
        0.3591018617153168,
        0.3079919219017029,
        0.5253334641456604,
        0.6587271094322205,
        0.8516771793365479,
        -1.272737979888916
      ]
    },
    {
      "architecture": "normalization",
      "bias": [
        0.00012690521543845534,
        -0.00012072116805939004,
        -0.037462446838617325,
        -0.019762594252824783,
        -1.1616460084915161,
        -0.4583999812602997,
        -0.2641706168651581,
        -0.021208476275205612,
        4.045171954203397e-05,
        -0.027532916516065598,
        -0.004651807248592377,
        -0.25519731640815735,
        -0.025550704449415207,
        0.002483653835952282,
        -0.002840587869286537,
        5.4582877055509016e-05,
        4.37747294199653e-05,
        -8.075742516666651e-05,
        -0.08959461748600006,
        -0.014904521405696869,
        -0.7677526473999023,
        -0.04657294228672981,
        -6.034040416125208e-05,
        -0.06265950947999954,
        -0.02243533544242382,
        -0.11959487944841385,
        -0.2859768271446228,
        1.1811770491476636e-05,
        -0.18064472079277039,
        -0.08979035168886185,
        5.841971869813278e-05,
        -0.000127073100884445,
        -0.11561229825019836,
        -7.036119495751336e-05,
        -5.789841816294938e-05,
        -0.7149175405502319,
        2.35121333389543e-05,
        0.00010044546070275828,
        2.8082554308639374e-06,
        -0.019061315804719925,
        2.594436773506459e-05,
        -0.3198268413543701,
        -0.2616747319698334,
        3.1163312087301165e-05,
        -0.06763884425163269,
        -0.00864543579518795,
        7.53375788917765e-05,
        -7.31364416424185e-05,
        -0.0029436966869980097,
        -0.007838862016797066,
        -0.00016319664428010583,
        -0.03507905453443527,
        -0.025404561311006546,
        -0.027459286153316498,
        -0.203004390001297,
        -0.013635076582431793,
        2.5318455300293863e-05,
        -0.021540839225053787,
        0.000102930651337374,
        0.00015548037481494248,
        0.00013655242219101638,
        -0.15632137656211853,
        -0.02542741410434246,
        -0.017054187133908272
      ],
      "weights": [
        31.622774124145508,
        31.622774124145508,
        36.84816360473633,
        19.410194396972656,
        18.838979721069336,
        14.860316276550293,
        13.285476684570312,
        27.64640235900879,
        31.622774124145508,
        23.624713897705078,
        13.515717506408691,
        8.446375846862793,
        10.897990226745605,
        31.622774124145508,
        59.06827163696289,
        31.264421463012695,
        31.622774124145508,
        31.622774124145508,
        22.622882843017578,
        26.65886116027832,
        48.65195846557617,
        42.461631774902344,
        31.622774124145508,
        14.77096939086914,
        29.769657135009766,
        21.75775146484375,
        25.578372955322266,
        31.622774124145508,
        4.000162601470947,
        13.423383712768555,
        31.622774124145508,
        30.956499099731445,
        17.524152755737305,
        31.622774124145508,
        30.5174560546875,
        13.797101974487305,
        29.80821418762207,
        31.136512756347656,
        31.622774124145508,
        25.627473831176758,
        31.622774124145508,
        3.330479621887207,
        6.039912700653076,
        31.622774124145508,
        10.198493003845215,
        30.614404678344727,
        31.622774124145508,
        31.622774124145508,
        31.622774124145508,
        26.93837547302246,
        31.622774124145508,
        31.319726943969727,
        15.052695274353027,
        45.461936950683594,
        18.68484115600586,
        23.229084014892578,
        31.03378677368164,
        27.413002014160156,
        31.29100227355957,
        31.622774124145508,
        31.622774124145508,
        21.405481338500977,
        41.857421875,
        21.64781379699707
      ]
    },
    {
      "activation": "rectified",
      "architecture": "dense",
      "bias": [
        0.42978283762931824,
        1.2488688230514526,
        -0.21137890219688416,
        -0.01344293076545,
        -0.0472128801047802,
        -0.25888195633888245,
        0.2540319859981537,
        -0.010493436828255653,
        0.018230784684419632,
        -0.17269176244735718,
        -0.46593570709228516,
        -0.27119916677474976,
        0.07176823168992996,
        -0.3529147207736969,
        0.09978556632995605,
        -0.05701632425189018,
        -0.4119529128074646,
        -0.06812460720539093,
        -0.6695069670677185,
        -0.27932941913604736,
        -0.06943091750144958,
        -0.16328780353069305,
        -0.2825082838535309,
        0.41619205474853516,
        -0.8300368189811707,
        -0.33062997460365295,
        -0.02759997546672821,
        0.42256519198417664,
        0.5231037139892578,
        -0.29677796363830566,
        0.015246767550706863,
        -0.09607487916946411
      ],
      "weights": [
        0.02037704735994339,
        -0.015528972260653973,
        0.2454214096069336,
        -0.7051199078559875,
        -0.018913812935352325,
        -0.30396348237991333,
        -0.3262999951839447,
        -0.17330516874790192,
        0.014728614129126072,
        -0.23313909769058228,
        -0.1939704865217209,
        0.04483070597052574,
        0.4920836389064789,
        0.32489535212516785,
        -1.0119472742080688,
        0.00788675807416439,
        -0.011695693247020245,
        -0.004342975560575724,
        0.027548179030418396,
        -0.30892670154571533,
        -0.16733819246292114,
        -0.2530639171600342,
        0.011300135403871536,
        -0.1778358370065689,
        0.03293460234999657,
        0.1023401990532875,
        -0.18260282278060913,
        0.004206214565783739,
        0.23357366025447845,
        -0.1460845023393631,
        -0.005383363459259272,
        0.003173430683091283,
        -0.20407941937446594,
        0.011237330734729767,
        0.006652859505265951,
        0.3490096926689148,
        -0.0037394363898783922,
        -0.011662560515105724,
        0.013869952410459518,
        -1.0251890420913696,
        -0.011983275413513184,
        -0.4469451904296875,
        0.3392561674118042,
        -0.01393485814332962,
        0.08328232169151306,
        0.13839685916900635,
        0.019234396517276764,
        0.008042125962674618,
        -0.29121914505958557,
        -0.22286289930343628,
        -0.013865896500647068,
        -0.34488821029663086,
        0.987783670425415,
        0.13247384130954742,
        -0.23614583909511566,
        -0.6118269562721252,
        -0.0028496452141553164,
        -0.35667333006858826,
        0.013250661082565784,
        0.007550020236521959,
        0.007248501293361187,
        -0.26789942383766174,
        0.06669490784406662,
        -1.8815771341323853,
        0.03827136382460594,
        -0.045728541910648346,
        -0.6806136965751648,
        -0.04696616902947426,
        0.04929833486676216,
        -0.7767261266708374,
        0.6370071172714233,
        -0.209919735789299,
        -0.003940465394407511,
        -0.29131925106048584,
        0.3147130310535431,
        0.35755297541618347,
        0.34142717719078064,
        1.3517874479293823,
        0.3479863405227661,
        0.031439267098903656,
        0.022194916382431984,
        0.019035251811146736,
        -0.4269723892211914,
        0.4258250296115875,
        0.15484721958637238,
        -0.23192386329174042,
        -0.0011117745889350772,
        -0.09193029999732971,
        0.04966218024492264,
        -0.26037606596946716,
        -0.41008612513542175,
        0.02033166214823723,
        0.029809333384037018,
        -0.14117015898227692,
        -0.014211567118763924,
        0.0022646375000476837,
        0.2685897946357727,
        0.030129333958029747,
        0.0333552211523056,
        -0.4421935975551605,
        -0.0346238948404789,
        -0.017632367089390755,
        0.022897958755493164,
        -0.18424879014492035,
        0.018338661640882492,
        -0.31403741240501404,
        0.13270100951194763,
        -0.030377011746168137,
        0.10064911097288132,
        0.04016122967004776,
        0.042365752160549164,
        -0.023754550144076347,
        -1.2884340286254883,
        -0.1950627714395523,
        0.012828797101974487,
        0.09716308116912842,
        -0.2832338809967041,
        -0.022092845290899277,
        0.365902304649353,
        0.049692943692207336,
        -0.04615055397152901,
        0.3680463433265686,
        -0.01954570598900318,
        0.03104284405708313,
        0.016054997220635414,
        -0.24212130904197693,
        -0.012081936001777649,
        0.14434482157230377,
        -0.013209040276706219,
        -0.013644163496792316,
        0.1029306948184967,
        -0.5595132112503052,
        0.3627280592918396,
        0.8466899991035461,
        0.34707462787628174,
        -1.0679394006729126,
        0.009437983855605125,
        -0.12682226300239563,
        0.12353363633155823,
        0.1917988508939743,
        -0.562457799911499,
        -0.1757502257823944,
        0.020414113998413086,
        -0.029373671859502792,
        -0.041262414306402206,
        0.018403498455882072,
        0.29917192459106445,
        0.1620369851589203,
        0.35223349928855896,
        -0.19510042667388916,
        0.010054368525743484,
        -0.0750608965754509,
        0.08409342169761658,
        -0.1994052231311798,
        0.4258173406124115,
        0.010190333239734173,
        0.44571173191070557,
        0.2269892394542694,
        -0.02653956413269043,
        0.0020769047550857067,
        -0.008452712558209896,
        0.0018221151549369097,
        0.0053873127326369286,
        0.7592921853065491,
        -0.004290143493562937,
        -0.012093940749764442,
        0.011342082172632217,
        -0.02922852151095867,
        -0.01882193796336651,
        0.03837238997220993,
        0.24573121964931488,
        -0.004146652761846781,
        0.32312458753585815,
        0.16326755285263062,
        -0.03586210682988167,
        0.041232142597436905,
        0.11994142085313797,
        0.008436634205281734,
        -0.019850030541419983,
        -0.06135733798146248,
        0.4273257851600647,
        -0.03978083282709122,
        -0.5592372417449951,
        -0.14966168999671936,
        -0.000283467466942966,
        -0.12151013314723969,
        0.006702125072479248,
        -0.02708154171705246,
        -0.03412129729986191,
        0.07129907608032227,
        0.4169488847255707,
        0.3546161949634552,
        -0.001686236821115017,
        0.014023696072399616,
        -0.40184396505355835,
        0.5340490341186523,
        0.19263994693756104,
        -0.3423292338848114,
        -0.08165568113327026,
        -0.20854316651821136,
        0.04140903428196907,
        -0.0362224243581295,
        -0.2319314032793045,
        -0.008381886407732964,
        0.6760658025741577,
        -0.12859854102134705,
        0.878158688545227,
        -0.0026508925948292017,
        -0.0033846802543848753,
        -0.011323390528559685,
        0.07751283794641495,
        0.07225267589092255,
        0.05931444466114044,
        -0.48528608679771423,
        -0.005000889301300049,
        -0.08579171448945999,
        0.4395313858985901,
        0.5140559077262878,
        0.17049510776996613,
        -0.022904757410287857,
        -0.3690102696418762,
        -0.19728609919548035,
        0.004356794990599155,
        -0.026729177683591843,
        -0.537874162197113,
        -0.03245420381426811,
        -0.02419046126306057,
        0.19807051122188568,
        0.023310523480176926,
        0.03525593504309654,
        -0.023592833429574966,
        -0.5455588698387146,
        -0.030758017674088478,
        0.29578322172164917,
        -0.4737822413444519,
        0.02347489632666111,
        -0.3604755699634552,
        -0.08106835931539536,
        -0.004711569286882877,
        0.004576910752803087,
        0.17978623509407043,
        -0.016373854130506516,
        0.006964069325476885,
        0.41042330861091614,
        -0.1931399405002594,
        0.22654330730438232,
        0.2464945763349533,
        -0.07556764036417007,
        0.024266965687274933,
        -0.7930125594139099,
        0.03450525552034378,
        0.0054686544463038445,
        -0.005158885382115841,
        -0.1818542331457138,
        -0.5563948750495911,
        -0.18077008426189423,
        0.008939390070736408,
        -0.005581118166446686,
        -0.571010172367096,
        -0.3669177293777466,
        -0.24905695021152496,
        -0.2963007986545563,
        -0.10109897702932358,
        -0.20397697389125824,
        0.003344712546095252,
        0.5427125692367554,
        -0.023814309388399124,
        -0.09234869480133057,
        -0.04439100623130798,
        -0.12114834785461426,
        0.5065445303916931,
        -0.010597305372357368,
        -0.0019822141621261835,
        0.004884909838438034,
        0.0966673269867897,
        0.441423237323761,
        -0.15357284247875214,
        -0.14876261353492737,
        -0.007652088068425655,
        -1.3315049409866333,
        0.1501276046037674,
        0.16161897778511047,
        0.12294366210699081,
        0.0069868494756519794,
        0.07190562784671783,
        0.11577894538640976,
        -0.005273886956274509,
        -0.009194925427436829,
        0.19030573964118958,
        -0.0005587363266386092,
        0.0022159412037581205,
        0.4639551043510437,
        -0.0037441449239850044,
        -0.0017554251244291663,
        0.006525424774736166,
        0.12596379220485687,
        0.0007589708548039198,
        0.1426246464252472,
        0.3979906439781189,
        -0.003828728338703513,
        -0.005233011674135923,
        0.19723786413669586,
        0.0011471828911453485,
        -0.001054376713000238,
        -0.028983112424612045,
        -0.4202149212360382,
        -0.01160629466176033,
        0.06806643307209015,
        0.05307134613394737,
        -0.2570992708206177,
        0.326925665140152,
        0.31757810711860657,
        -0.0020528084132820368,
        -0.1754046380519867,
        0.014016656205058098,
        0.014038145542144775,
        0.007915889844298363,
        0.17499291896820068,
        -0.027004824951291084,
        -0.4485267102718353,
        -0.036322422325611115,
        0.0055397250689566135,
        0.047195643186569214,
        -0.34245753288269043,
        -0.8781296014785767,
        0.08185629546642303,
        0.22733144462108612,
        -0.6589533090591431,
        -0.00879717618227005,
        -0.0022117786575108767,
        -0.7678845524787903,
        -0.04732564091682434,
        0.3412315547466278,
        -0.13754457235336304,
        -0.3036336600780487,
        -0.049622390419244766,
        -0.04149213433265686,
        0.04001682624220848,
        0.5195689797401428,
        -0.32263898849487305,
        -0.05741000548005104,
        -0.0742112547159195,
        -0.0008274432620964944,
        -0.01824164390563965,
        -0.1108182743191719,
        -0.19440238177776337,
        -0.2687712609767914,
        0.008000757545232773,
        -0.4990491271018982,
        0.4983642101287842,
        -0.03466670587658882,
        0.04427305608987808,
        -0.09167425334453583,
        0.01700936071574688,
        0.017842041328549385,
        0.15175791084766388,
        -0.014590028673410416,
        -0.03046819567680359,
        0.018239451572299004,
        -0.08649056404829025,
        0.007508720736950636,
        0.12238620966672897,
        -0.08240599930286407,
        -0.018699459731578827,
        0.1926763355731964,
        0.08520875126123428,
        -0.042574383318424225,
        0.04492776095867157,
        0.20720215141773224,
        0.17073634266853333,
        -0.016173293814063072,
        -0.39063966274261475,
        -0.35365724563598633,
        -0.263420045375824,
        0.33063092827796936,
        -0.37134188413619995,
        -0.0038182528223842382,
        0.09632889181375504,
        -0.019222863018512726,
        -0.02115318737924099,
        -0.04049089923501015,
        -0.49209123849868774,
        0.20042619109153748,
        0.39922600984573364,
        -0.019012724980711937,
        0.04062209650874138,
        -0.10073483735322952,
        0.2560059130191803,
        -0.2015237659215927,
        0.8555304408073425,
        -0.4137188494205475,
        -0.021055934950709343,
        -0.01591680571436882,
        -0.27576515078544617,
        0.2770092189311981,
        0.6237778067588806,
        0.2066209316253662,
        0.08200392127037048,
        0.0991903617978096,
        -0.0037274688947945833,
        0.013120245188474655,
        0.009981242008507252,
        0.00040684352279640734,
        0.4232466220855713,
        -0.22440756857395172,
        -0.09767044335603714,
        -0.03055032156407833,
        -0.07641849666833878,
        0.2138751894235611,
        0.43228188157081604,
        -0.03459588438272476,
        -0.000830409349873662,
        0.10567457228899002,
        -0.2119469940662384,
        -0.007114080246537924,
        -0.0243044663220644,
        0.8588269352912903,
        -0.002610958879813552,
        -0.033914241939783096,
        -0.16656331717967987,
        0.03393630310893059,
        0.01739441230893135,
        -0.06330198049545288,
        0.29894936084747314,
        0.03457197546958923,
        -0.06782910972833633,
        -0.15997116267681122,
        0.07486852258443832,
        0.056728873401880264,
        -0.40054184198379517,
        0.008102470077574253,
        -0.019913671538233757,
        -0.5196367502212524,
        -0.07000234723091125,
        -0.016327090561389923,
        -0.23750272393226624,
        0.174367755651474,
        0.2635281980037689,
        0.22189942002296448,
        1.1476407051086426,
        0.019775187596678734,
        -0.47075265645980835,
        -0.03948763385415077,
        -0.0376213937997818,
        -0.030151698738336563,
        -0.010645889677107334,
        -0.03285587951540947,
        0.14188970625400543,
        -0.023473162204027176,
        0.01431300025433302,
        -0.14628469944000244,
        0.22491230070590973,
        -0.4440195560455322,
        -0.2311154305934906,
        -0.37522438168525696,
        0.41537582874298096,
        -0.008767898194491863,
        -0.23095335066318512,
        -0.016691086813807487,
        0.17390574514865875,
        -0.027919918298721313,
        -0.028798596933484077,
        0.5299941301345825,
        -0.02384989894926548,
        -0.01678650826215744,
        0.014666580595076084,
        -0.25370508432388306,
        -0.033712394535541534,
        -0.09540856629610062,
        0.8065509796142578,
        0.001598983770236373,
        0.1420864760875702,
        0.16347636282444,
        -0.0032220277935266495,
        -0.17746056616306305,
        -0.0012218495830893517,
        -0.04757758975028992,
        0.4226335883140564,
        -0.0121774198487401,
        0.019522447139024734,
        -0.13580229878425598,
        0.004547947086393833,
        0.0016187364235520363,
        0.4146775007247925,
        -0.0008296051528304815,
        -0.008716418407857418,
        -0.003997397609055042,
        -0.2309434413909912,
        0.006988453213125467,
        0.06324344873428345,
        0.06291594356298447,
        0.005280971061438322,
        0.2139969766139984,
        -0.16860263049602509,
        -0.018353905528783798,
        0.017306054010987282,
        0.002619737759232521,
        -0.5770519971847534,
        -0.014284884557127953,
        0.891009509563446,
        0.3136104345321655,
        0.07273238897323608,
        -0.03598403558135033,
        -0.5513767600059509,
        0.0036208017263561487,
        -0.711375892162323,
        -0.01425139233469963,
        -0.012053867802023888,
        -0.017215721309185028,
        -0.22154879570007324,
        0.13980260491371155,
        0.4215641915798187,
        0.009541868232190609,
        -0.02053934521973133,
        0.46311265230178833,
        0.45928359031677246,
        0.3135736286640167,
        -0.23235633969306946,
        -0.2518541216850281,
        -0.5764660239219666,
        -0.017776712775230408,
        -0.17250746488571167,
        -0.010155778378248215,
        0.27020251750946045,
        -0.04235672578215599,
        0.016013020649552345,
        0.2126167118549347,
        -0.0029269119258970022,
        0.004308555740863085,
        0.009326554834842682,
        0.4648111164569855,
        0.33493155241012573,
        -0.504884660243988,
        0.014611942693591118,
        -0.006933451164513826,
        -0.18794594705104828,
        -0.3196694552898407,
        -0.5761348009109497,
        0.11245682090520859,
        0.01734098419547081,
        0.6571093201637268,
        -0.2417389154434204,
        -0.01042971108108759,
        0.0030075281392782927,
        -0.04662537947297096,
        0.01572437584400177,
        0.016160190105438232,
        -0.302314817905426,
        -0.017741115763783455,
        -0.011394738219678402,
        0.01711169444024563,
        -0.2249877005815506,
        0.02286956086754799,
        -0.15893599390983582,
        0.07385071367025375,
        -0.01527576707303524,
        0.12653471529483795,
        -0.08892765641212463,
        0.006612435914576054,
        -0.005027166102081537,
        -0.07263005524873734,
        0.4311390221118927,
        -0.01023435965180397,
        0.26855871081352234,
        -0.5531485080718994,
        0.015040675178170204,
        0.08505133539438248,
        0.29037269949913025,
        -0.01849442720413208,
        0.3048437833786011,
        -0.010498110204935074,
        0.006773338187485933,
        0.0087874261662364,
        -0.11626863479614258,
        -0.44621482491493225,
        -0.11510702222585678,
        -0.009037822484970093,
        -0.010031343437731266,
        -0.6421977281570435,
        0.30131736397743225,
        -0.15088637173175812,
        -0.30732476711273193,
        0.06418705731630325,
        -0.40265482664108276,
        -0.022182997316122055,
        0.5679400563240051,
        -0.02169341966509819,
        -0.1273144781589508,
        0.07419862598180771,
        -0.12159394472837448,
        0.12097319215536118,
        -0.002470032311975956,
        0.008608396165072918,
        0.00550762889906764,
        0.019766829907894135,
        -0.3494209349155426,
        0.8845044374465942,
        0.08732781559228897,
        -0.0007596896612085402,
        -0.13741588592529297,
        0.25500404834747314,
        0.23117893934249878,
        0.3393993675708771,
        0.014829995110630989,
        0.3549395799636841,
        -0.26997801661491394,
        -0.007817322388291359,
        0.00037585431709885597,
        -0.46442553400993347,
        0.014294949360191822,
        0.015034203417599201,
        -0.1434532105922699,
        -0.01496485248208046,
        -0.009144668467342854,
        0.01843537576496601,
        -0.5640016198158264,
        0.020993907004594803,
        0.21116086840629578,
        0.09054919332265854,
        -0.01920236460864544,
        -0.24017885327339172,
        -0.033050842583179474,
        -0.012271327897906303,
        -0.002489502774551511,
        0.03733230009675026,
        0.061890020966529846,
        -0.0029246839694678783,
        -0.6964073181152344,
        0.05388444662094116,
        0.7449262738227844,
        -0.3007078468799591,
        -0.10749601572751999,
        -0.014596516266465187,
        -0.26605314016342163,
        -0.018106091767549515,
        -0.0026040938682854176,
        -0.0019736229442059994,
        -0.031605012714862823,
        -0.3778332769870758,
        -0.21149314939975739,
        -0.01742907240986824,
        0.029974350705742836,
        0.3016529381275177,
        -0.44283708930015564,
        -0.4228805899620056,
        -0.15447397530078888,
        0.3267718553543091,
        0.1466495841741562,
        0.018130626529455185,
        -0.0017554876394569874,
        -0.7849196195602417,
        -0.19107116758823395,
        -0.13836421072483063,
        -0.5701723098754883,
        -0.4075080454349518,
        0.003341405652463436,
        -0.00598104577511549,
        -0.021890323609113693,
        0.9251151084899902,
        -0.1363157033920288,
        0.12512002885341644,
        0.023721300065517426,
        0.011192433536052704,
        0.165249302983284,
        -0.1253022849559784,
        -0.2589623034000397,
        -0.4406254291534424,
        -0.03769451007246971,
        0.43722066283226013,
        0.3566892445087433,
        0.03163846209645271,
        -0.004487187135964632,
        0.10354156792163849,
        -0.024028724059462547,
        -0.03332950547337532,
        0.17430546879768372,
        0.03762092813849449,
        0.01717325672507286,
        -0.03964738920331001,
        0.2228783369064331,
        -0.026255792006850243,
        -0.5454927682876587,
        -0.04367401450872421,
        0.033416081219911575,
        0.32351747155189514,
        0.08865304291248322,
        -0.0015320355305448174,
        0.014356722123920918,
        0.48706987500190735,
        0.019391922280192375,
        0.03448866307735443,
        -0.36846867203712463,
        0.059901390224695206,
        -0.055525247007608414,
        0.15713080763816833,
        0.3188140392303467,
        0.029084524139761925,
        -0.03751549869775772,
        0.016141273081302643,
        -0.029246991500258446,
        -0.018365979194641113,
        -0.44863495230674744,
        0.167999729514122,
        0.20918156206607819,
        -0.0027934026438742876,
        0.0041998098604381084,
        -0.3739393353462219,
        0.08518076688051224,
        -0.19681231677532196,
        0.20115815103054047,
        -0.028688481077551842,
        0.14748576283454895,
        -0.0030784003902226686,
        -0.3791464865207672,
        0.13140150904655457,
        -0.01827426627278328,
        -0.32490208745002747,
        -0.4078247845172882,
        0.40747714042663574,
        0.005799800623208284,
        -0.0017056625802069902,
        -0.0033066526520997286,
        -0.016541659832000732,
        -0.07109183073043823,
        -0.0768083781003952,
        0.2303759753704071,
        0.004852402023971081,
        -0.2973897457122803,
        0.21191392838954926,
        -0.20622321963310242,
        0.021250789985060692,
        -0.002844162518158555,
        0.010171188041567802,
        0.3494356572628021,
        0.005944512784481049,
        -0.01059709396213293,
        0.6913294196128845,
        0.002101418562233448,
        -0.006377481855452061,
        0.5890619158744812,
        0.010527119040489197,
        -0.01053640991449356,
        -0.005618836730718613,
        -0.0008481020922772586,
        0.0024041628930717707,
        -0.3085622489452362,
        0.2114822417497635,
        0.0041031623259186745,
        -1.5291577577590942,
        -0.3891947865486145,
        0.003010846208781004,
        0.005107832606881857,
        0.36210912466049194,
        -0.48877885937690735,
        0.01498050894588232,
        0.1660681813955307,
        0.19537758827209473,
        -0.23299308121204376,
        -0.05984845012426376,
        0.09250470995903015,
        0.005286664701998234,
        -0.27874648571014404,
        0.0006009673816151917,
        -0.015370613895356655,
        -0.005512033589184284,
        0.18230870366096497,
        -0.6502191424369812,
        0.18007561564445496,
        0.029338985681533813,
        -0.04785500094294548,
        0.25245970487594604,
        -0.04087482765316963,
        -0.2807084918022156,
        -0.018373027443885803,
        -0.5169137120246887,
        0.03863358497619629,
        0.010683543980121613,
        -0.051911361515522,
        -0.8418147563934326,
        0.23623283207416534,
        0.06563298404216766,
        0.045919567346572876,
        -0.1227974221110344,
        0.03280249610543251,
        0.018863605335354805,
        0.013234388083219528,
        0.7521337866783142,
        0.10578124970197678,
        0.32328489422798157,
        0.02147783897817135,
        -0.01964796520769596,
        0.02777724526822567,
        0.03349621593952179,
        -0.018179088830947876,
        -0.21348555386066437,
        0.030038980767130852,
        -0.10164405405521393,
        0.17672112584114075,
        -0.023871446028351784,
        0.001455273712053895,
        -0.4140665531158447,
        0.029384512454271317,
        0.03153812885284424,
        0.40277355909347534,
        -0.035253483802080154,
        -0.009994191117584705,
        0.027637779712677002,
        -0.2240024358034134,
        0.005885076709091663,
        -0.6570920348167419,
        -0.2097720056772232,
        -0.02672424167394638,
        -0.06389530003070831,
        0.05643313005566597,
        0.030864126980304718,
        -0.024406014010310173,
        0.016590455546975136,
        0.23739421367645264,
        -0.014044210314750671,
        -0.14665810763835907,
        -0.04114948958158493,
        -0.0251084566116333,
        0.6627217531204224,
        -0.026412274688482285,
        -0.03198181092739105,
        -0.1599166989326477,
        0.005254742689430714,
        0.03434295952320099,
        0.0220087431371212,
        1.0056201219558716,
        0.2237020879983902,
        -0.08260390907526016,
        -0.0015356318326666951,
        -0.020975198596715927,
        0.0380551777780056,
        0.549324631690979,
        -0.05611530691385269,
        -0.24074114859104156,
        0.1618645340204239,
        0.07040651142597198,
        -0.008531021885573864,
        -1.2893589735031128,
        -0.16499154269695282,
        -0.39538756012916565,
        0.25807708501815796,
        -0.1103256493806839,
        0.4287978410720825,
        -0.0027042434085160494,
        0.006717242766171694,
        0.018827112391591072,
        -0.36921557784080505,
        0.05823495239019394,
        -0.09119744598865509,
        -0.09798657894134521,
        -0.012800167314708233,
        -0.10080835223197937,
        0.040816180408000946,
        0.19056916236877441,
        0.22985240817070007,
        0.020398318767547607,
        -0.06461016088724136,
        -0.14814965426921844,
        -0.016401123255491257,
        0.0052907587960362434,
        -0.597877562046051,
        0.01997390389442444,
        0.017132842913269997,
        0.41338062286376953,
        -0.018914751708507538,
        -0.00892290286719799,
        0.005477136466652155,
        0.02899336814880371,
        0.008704152889549732,
        0.2775201201438904,
        -0.48400548100471497,
        -0.003936717752367258,
        -0.4367658495903015,
        0.28335779905319214,
        0.005006009712815285,
        -0.009940287098288536,
        0.3294696807861328,
        0.12758299708366394,
        0.013891763053834438,
        0.36106300354003906,
        -0.16825945675373077,
        0.06942878663539886,
        0.43003812432289124,
        -0.01538346242159605,
        -0.017841901630163193,
        -0.5503330230712891,
        -0.020051926374435425,
        -0.020172085613012314,
        -0.004974625539034605,
        -0.08804598450660706,
        -0.076502725481987,
        -0.22627481818199158,
        -0.021413207054138184,
        0.05622455105185509,
        -0.27675575017929077,
        0.2633502781391144,
        -0.010500545613467693,
        -0.09577681869268417,
        0.2825261950492859,
        0.14109906554222107,
        0.018528617918491364,
        0.16140484809875488,
        0.016930943354964256,
        0.20043888688087463,
        -0.20211367309093475,
        0.03305799514055252,
        0.6805164217948914,
        -0.019984520971775055,
        -0.004543995950371027,
        -0.04723281040787697,
        0.16931381821632385,
        0.6152149438858032,
        -0.3836226165294647,
        -0.25458961725234985,
        -0.030866451561450958,
        -0.23249992728233337,
        -0.11530756205320358,
        -0.4368993639945984,
        0.5135519504547119,
        -0.055956628173589706,
        -0.39475002884864807,
        0.002847299911081791,
        0.020925091579556465,
        -0.007684423588216305,
        -0.10079364478588104,
        -0.041652336716651917,
        -0.05254945158958435,
        0.10155519098043442,
        0.05388893932104111,
        0.03461337834596634,
        -0.05508236214518547,
        0.10422643274068832,
        -3.670360456453636e-05,
        0.37354540824890137,
        -0.4257718622684479,
        0.05139818415045738,
        0.1517418771982193,
        -1.4584665298461914,
        -0.014640859328210354,
        0.0043717036023736,
        -0.02491655759513378,
        -0.1240234524011612,
        -0.03256130591034889,
        -0.6527217030525208,
        0.06281368434429169,
        0.2532042860984802,
        -0.1919233500957489,
        0.34631386399269104,
        0.04610823839902878,
        -0.3156980574131012,
        -0.002116656396538019,
        -0.001051530591212213,
        -0.003666379489004612,
        0.32432445883750916,
        -0.696683943271637,
        0.2315656989812851,
        0.004558568354696035,
        -0.011132696643471718,
        0.13113078474998474,
        0.12936827540397644,
        0.28894755244255066,
        -0.1288953721523285,
        0.31853508949279785,
        0.1324322670698166,
        -0.004819984082132578,
        -0.24846622347831726,
        0.02870708890259266,
        0.16706718504428864,
        -0.13091276586055756,
        -0.045915693044662476,
        0.08120766282081604,
        -0.0027579250745475292,
        0.007591152563691139,
        -0.0012079126900061965,
        0.10012294352054596,
        0.6716150045394897,
        -0.554938793182373,
        -0.596034586429596,
        -0.01019818615168333,
        0.2084680050611496,
        0.8591772317886353,
        0.24925443530082703,
        -0.6156087517738342,
        0.005893810652196407,
        -0.27210432291030884,
        -0.11309557408094406,
        -0.0008666458888910711,
        -0.008963930420577526,
        0.06487695872783661,
        -0.002287690294906497,
        0.0019852386321872473,
        0.11166281998157501,
        -0.005518629681318998,
        0.0068174367770552635,
        0.004774235654622316,
        0.23968492448329926,
        0.013054397888481617,
        0.18373839557170868,
        0.44280609488487244,
        -0.002363103674724698,
        -0.29439258575439453,
        0.4844134449958801,
        0.000875148456543684,
        -0.008533868938684464,
        -0.019804975017905235,
        0.2349264919757843,
        -0.009479762986302376,
        -0.15141738951206207,
        -0.05197196081280708,
        0.0741664469242096,
        0.08096684515476227,
        -0.30880090594291687,
        -0.003492822404950857,
        0.07296097278594971,
        0.005089671816676855,
        0.01080091018229723,
        0.01017795316874981,
        0.4121531546115875,
        0.7585972547531128,
        -0.14993886649608612,
        -0.026325896382331848,
        0.0019898724276572466,
        -0.4856093227863312,
        0.07255098223686218,
        0.732397198677063,
        0.15832915902137756,
        -0.31716737151145935,
        0.0934232622385025,
        -0.005119702313095331,
        -0.02940474823117256,
        0.2352084219455719,
        0.05412553250789642,
        0.31070682406425476,
        -0.49064901471138,
        0.3117985427379608,
        -0.016042115166783333,
        -0.0023105263244360685,
        0.021864110603928566,
        0.3992806673049927,
        0.22773884236812592,
        -0.3260039985179901,
        0.03025892935693264,
        -0.02743563987314701,
        -0.5456418991088867,
        0.07237381488084793,
        -0.11305499076843262,
        -0.4041292071342468,
        0.005285425577312708,
        -0.5690162181854248,
        -0.11681900918483734,
        -0.02553446963429451,
        0.027514897286891937,
        0.27862149477005005,
        0.0067494274117052555,
        0.0032739995513111353,
        0.15848316252231598,
        -0.0020678816363215446,
        -0.005386252887547016,
        -0.0007482802029699087,
        -0.4370105266571045,
        0.006933524273335934,
        0.2733839452266693,
        -0.19677214324474335,
        -0.0023020748049020767,
        -0.5040037035942078,
        0.04708116874098778,
        -0.02186521887779236,
        0.01328149065375328,
        0.19536618888378143,
        0.014555353671312332,
        0.007067464292049408,
        -0.013557614758610725,
        -0.15813906490802765,
        0.24930594861507416,
        0.41797277331352234,
        0.17513655126094818,
        0.002361749764531851,
        -0.1765015721321106,
        -0.019403347745537758,
        -0.027040624991059303,
        -0.02905391715466976,
        -0.8104203939437866,
        -0.32742956280708313,
        -0.12871378660202026,
        -0.019360767677426338,
        -0.00042348302667960525,
        0.07910521328449249,
        -0.13556769490242004,
        0.1600927710533142,
        0.1534191519021988,
        -0.16752594709396362,
        0.5344139933586121,
        -0.01044088788330555,
        -0.20844855904579163,
        0.01928757131099701,
        0.249725341796875,
        -0.10757235437631607,
        -0.013818670064210892,
        0.6640061736106873,
        -0.01823757216334343,
        -0.022246843203902245,
        0.028155598789453506,
        -0.2535295784473419,
        -0.22321979701519012,
        0.7669284343719482,
        -0.8781670331954956,
        -0.006362817715853453,
        0.26800084114074707,
        -0.3493177890777588,
        0.3597544729709625,
        0.2771933972835541,
        0.02479061670601368,
        0.18185782432556152,
        0.1710117906332016,
        -0.02737806923687458,
        0.017741382122039795,
        -0.18562988936901093,
        0.02602563239634037,
        0.024774691089987755,
        0.07223211228847504,
        -0.022265978157520294,
        -0.019274558871984482,
        0.015186036005616188,
        -0.4752961993217468,
        -0.00680681224912405,
        0.004995862953364849,
        -0.0850135087966919,
        -0.012144005857408047,
        0.03903568536043167,
        0.591050386428833,
        -0.014035772532224655,
        0.019188500940799713,
        0.16805225610733032,
        0.17868632078170776,
        -0.0026559345424175262,
        0.34083741903305054,
        -0.29687613248825073,
        -0.7381086945533752,
        0.24992498755455017,
        0.334065318107605,
        -0.018297092989087105,
        -0.0948692113161087,
        -0.01385475229471922,
        -0.022427229210734367,
        -0.022903060540556908,
        -0.4663569927215576,
        0.23884247243404388,
        0.2984457015991211,
        0.008559695445001125,
        -9.263637912226841e-05,
        -0.07301928848028183,
        0.11645709723234177,
        0.4248417913913727,
        -0.303047776222229,
        0.4454459547996521,
        -0.01259681861847639,
        0.013638954609632492,
        0.041354626417160034,
        -0.04331697151064873,
        0.08914210647344589,
        0.23588944971561432,
        -0.5116896033287048,
        -1.4927419424057007,
        0.00846547819674015,
        -0.017185207456350327,
        0.0047774664126336575,
        0.09503845125436783,
        0.5403505563735962,
        -0.2907097041606903,
        0.07017365097999573,
        0.03142468258738518,
        -0.15734133124351501,
        -0.5968677997589111,
        0.20866449177265167,
        0.2862265706062317,
        -0.006270616315305233,
        0.05746952444314957,
        -0.02645614743232727,
        -0.004593191668391228,
        0.016212312504649162,
        -0.4735211730003357,
        -0.003578970907256007,
        0.00032701308373361826,
        0.14002075791358948,
        0.0024184139911085367,
        -0.010455243289470673,
        0.006840518210083246,
        0.1801554560661316,
        -0.022459592670202255,
        -0.21387119591236115,
        0.4133836328983307,
        -0.009800577536225319,
        -0.13627229630947113,
        0.014219896867871284,
        -0.0032382470089942217,
        0.0164459478110075,
        0.5737677216529846,
        0.32293501496315,
        0.012350612320005894,
        -0.07254024595022202,
        -0.10483194142580032,
        -0.12313681840896606,
        0.011726300232112408,
        -0.15169650316238403,
        0.003616170259192586,
        0.07366152852773666,
        0.016510143876075745,
        0.002936008619144559,
        -0.0054318346083164215,
        0.06836989521980286,
        0.1286223977804184,
        -0.04309847205877304,
        0.019877899438142776,
        -0.01555846631526947,
        0.8102306127548218,
        0.17520220577716827,
        0.1131310984492302,
        -0.371351420879364,
        -0.23941047489643097,
        0.12378405779600143,
        0.024985812604427338,
        0.5762761235237122,
        -0.0465264692902565,
        0.21316559612751007,
        -0.15354713797569275,
        -0.12053058296442032,
        0.4259401559829712,
        0.0300406776368618,
        0.0363139882683754,
        -0.0013236692175269127,
        0.18548056483268738,
        0.1710011512041092,
        -0.21550282835960388,
        0.11994347721338272,
        0.0005434461636468768,
        -0.6399406790733337,
        -0.07705894857645035,
        -0.31617364287376404,
        -0.4172438383102417,
        -0.005613555666059256,
        -0.07483554631471634,
        -0.1528705209493637,
        0.009534729644656181,
        -0.06237742677330971,
        -0.263888418674469,
        -0.022680480033159256,
        -0.01799633540213108,
        -0.012842357158660889,
        0.014584079384803772,
        0.03861406072974205,
        -0.016786843538284302,
        0.10131018608808517,
        -0.0228642076253891,
        0.6309514045715332,
        -0.21515260636806488,
        0.015925267711281776,
        -0.6251020431518555,
        0.0867219939827919,
        0.020431047305464745,
        -0.03934482857584953,
        0.22246843576431274,
        -1.31522536277771,
        0.037942804396152496,
        -0.16762924194335938,
        0.019893288612365723,
        -0.0981021299958229,
        0.026604773476719856,
        -0.44984111189842224,
        0.010704034008085728,
        -0.36165061593055725,
        0.03066686913371086,
        0.033628400415182114,
        0.02993188612163067,
        -0.11112616956233978,
        -0.4052448570728302,
        -0.4328421950340271,
        0.0132508659735322,
        -0.01957814209163189,
        -0.37484613060951233,
        -0.17652708292007446,
        0.06222740188241005,
        0.1410427689552307,
        0.006199922878295183,
        0.07554652541875839,
        0.0007387226796709001,
        -0.14706967771053314,
        -0.02205006033182144,
        0.4809713065624237,
        0.15338271856307983,
        0.121148020029068,
        0.7216423749923706,
        0.008835095912218094,
        0.008537042886018753,
        -0.010128844529390335,
        0.31544023752212524,
        -0.13012725114822388,
        -0.12737248837947845,
        -0.5921879410743713,
        -0.01140441931784153,
        -0.0519169382750988,
        0.3333043158054352,
        -0.774810254573822,
        0.002989743836224079,
        0.005621873773634434,
        0.2117413878440857,
        -0.21126967668533325,
        0.006396803539246321,
        -0.016547922044992447,
        0.2266853153705597,
        0.0006908511859364808,
        0.0007919084746390581,
        0.2028542309999466,
        -0.005047870334237814,
        0.006095493212342262,
        0.004335842560976744,
        0.0065946211107075214,
        0.004183501470834017,
        -0.17369797825813293,
        0.31744617223739624,
        -0.0020201297011226416,
        0.24290068447589874,
        -1.78118097782135,
        0.011879242956638336,
        -0.011848203837871552,
        0.021747244521975517,
        -0.5359145402908325,
        -0.024035461246967316,
        -0.1284644454717636,
        0.32737523317337036,
        0.17178548872470856,
        -0.11772540956735611,
        -0.09684622287750244,
        -0.006682744715362787,
        0.4082726836204529,
        -0.00012714987678918988,
        0.018236437812447548,
        0.016763487830758095,
        0.3204999566078186,
        -0.7923839092254639,
        0.16587531566619873,
        -0.05379213020205498,
        0.06560729444026947,
        -0.19292336702346802,
        -1.222288727760315,
        0.4281146228313446,
        -0.11062417924404144,
        -0.11023794114589691,
        0.01270477008074522,
        0.007287206128239632,
        0.0533151738345623,
        0.09185954183340073,
        -0.45360875129699707,
        -0.03593915328383446,
        -0.03774966672062874,
        -0.5820425152778625,
        -0.07809661328792572,
        -0.025768853724002838,
        -0.011198717169463634,
        0.3046847879886627,
        -0.6859068274497986,
        0.4631173610687256,
        0.17616531252861023,
        -0.046373359858989716,
        0.07965867966413498,
        0.20332489907741547,
        -0.47783029079437256,
        -0.1089407354593277,
        -0.05006199702620506,
        0.4791349768638611,
        -0.17369824647903442,
        0.01566334255039692,
        0.001416211947798729,
        -0.16961286962032318,
        -0.04246578365564346,
        -0.04629949852824211,
        0.3876000940799713,
        0.041909851133823395,
        0.04290835186839104,
        -0.0620126910507679,
        -0.16882547736167908,
        0.027230191975831985,
        -0.06137581542134285,
        -0.05854279175400734,
        0.06028931215405464,
        0.05877811089158058,
        -0.7095983028411865,
        -0.04100915044546127,
        0.02509455941617489,
        0.004905056208372116,
        0.07694203406572342,
        -0.03853197395801544,
        -0.10591453313827515,
        0.9517426490783691,
        0.28744760155677795,
        -0.31469306349754333,
        -0.2393433004617691,
        0.05147555097937584,
        0.3169863224029541,
        0.008983559906482697,
        0.012587567791342735,
        -0.02217075787484646,
        -0.08115182816982269,
        0.30249297618865967,
        -0.9435261487960815,
        -0.02448434568941593,
        0.06531403958797455,
        -0.2609734535217285,
        -0.15026262402534485,
        0.05597122386097908,
        -0.07252524048089981,
        -0.09809088706970215,
        0.1711483597755432,
        0.029047593474388123,
        -0.7937143445014954,
        0.04730936139822006,
        0.06670653820037842,
        0.24968929588794708,
        -0.4922153949737549,
        -0.07241698354482651,
        0.030999477952718735,
        0.0375509075820446,
        -0.015393364243209362,
        -0.5229558944702148,
        -0.1735098958015442,
        -0.004030913580209017,
        0.07599354535341263,
        0.0029173351358622313,
        0.4423551559448242,
        0.6422896981239319,
        -0.2871885895729065,
        -0.4652070701122284,
        -0.04370144382119179,
        -0.057687025517225266,
        0.4317797124385834,
        0.010197903029620647,
        -0.031227074563503265,
        0.325499564409256,
        -0.037028033286333084,
        -0.04068298265337944,
        0.15441882610321045,
        0.046273186802864075,
        0.0313345268368721,
        -0.043350037187337875,
        0.059274449944496155,
        -0.035066474229097366,
        -0.3239668309688568,
        0.3656856417655945,
        0.03153543174266815,
        0.02211856096982956,
        -0.2703889310359955,
        -0.015320350416004658,
        -0.02623245120048523,
        0.5756377577781677,
        0.4236319959163666,
        0.09219255298376083,
        0.020471835508942604,
        0.48345258831977844,
        -0.06337284296751022,
        0.5177880525588989,
        -0.4212225377559662,
        0.04059528931975365,
        0.86570805311203,
        -0.007784922141581774,
        -0.029221311211586,
        -0.02083505503833294,
        0.3796980082988739,
        0.3861391544342041,
        -0.32221657037734985,
        0.036750905215740204,
        -0.04774981737136841,
        0.11167315393686295,
        -0.4216163158416748,
        -0.46711334586143494,
        -0.21888668835163116,
        0.23114898800849915,
        -0.10500098764896393,
        -0.012392856180667877,
        0.14678677916526794,
        -0.37214699387550354,
        0.4738878309726715,
        -0.05747809261083603,
        0.5255411863327026,
        0.3962949812412262,
        -0.026666581630706787,
        -0.03138703107833862,
        0.027964631095528603,
        0.5204594135284424,
        -0.17796175181865692,
        0.5828106999397278,
        0.0591278001666069,
        0.024696514010429382,
        -0.2421797811985016,
        0.23601722717285156,
        0.11696922034025192,
        -0.43099990487098694,
        0.034969668835401535,
        -0.15045283734798431,
        0.130037322640419,
        -0.024505916982889175,
        0.02386532537639141,
        -0.6933813691139221,
        0.020345181226730347,
        0.025229083374142647,
        -0.2773585915565491,
        -0.028338877484202385,
        -0.044640544801950455,
        0.037383969873189926,
        -0.08803127706050873,
        -0.01607612892985344,
        -0.3122166395187378,
        -0.3734172284603119,
        -0.024068914353847504,
        -0.4505650997161865,
        -0.053514860570430756,
        0.0005583548336289823,
        0.007679798640310764,
        -0.5710873007774353,
        -0.3930644690990448,
        -0.036927081644535065,
        -0.2866692543029785,
        0.12051814049482346,
        -0.11420518904924393,
        0.7036521434783936,
        0.10714132338762283,
        -0.01627030409872532,
        -0.29833799600601196,
        0.026949891820549965,
        0.02294807694852352,
        0.025626089423894882,
        0.07548204809427261,
        -0.3092404007911682,
        0.04692397639155388,
        -0.005838826764374971,
        0.01963774301111698,
        -0.1552528589963913,
        -1.1688621044158936,
        -0.016873247921466827,
        -0.25098294019699097,
        -0.040506213903427124,
        -0.03460897132754326,
        0.011888478882610798,
        0.11405579745769501,
        0.08276078850030899,
        -0.2014898955821991,
        -0.046386200934648514,
        -0.6428321599960327,
        0.6610397696495056,
        -0.004668841604143381,
        0.03397633507847786,
        -0.02157657966017723,
        0.038924917578697205,
        0.4017326831817627,
        -0.4913426637649536,
        -0.2104710042476654,
